svm_type epsilon_svr
kernel_type rbf
gamma 10
nr_class 2
total_sv 2293
rho -0.56340804278871492
SV
-10 
-10 1:0.00015468091 2:3.0778701e-08 
-10 1:0.00030936182 2:6.1557402e-08 
-10 1:0.00046404274 2:9.2336103e-08 
-10 1:0.00061872365 2:1.231148e-07 
-10 1:0.00077340456 2:1.5389351e-07 
-10 1:0.00092808547 2:1.8467221e-07 
-10 1:0.0010827664 2:2.1545091e-07 
-10 1:0.0012374473 2:2.4622961e-07 
-10 1:0.0013921282 2:2.7700831e-07 
-10 1:0.0015468091 2:3.0778701e-07 
-10 1:0.00170149 2:3.3856571e-07 
-10 1:0.0018561709 2:3.6934441e-07 
-10 1:0.0020108519 2:4.0012311e-07 
-10 1:0.0021655328 2:4.3090182e-07 
-10 1:0.0023202137 2:4.6168052e-07 
-10 1:0.0024748946 2:4.9245922e-07 
-10 1:0.0026295755 2:5.2323792e-07 
-10 1:0.0027842564 2:5.5401662e-07 
-10 1:0.0029389373 2:5.8479532e-07 
-10 1:0.0030936182 2:6.1557402e-07 
-10 1:0.0032482991 2:6.4635272e-07 
-10 1:0.0034029801 2:6.7713143e-07 
-10 1:0.003557661 2:7.0791013e-07 
-10 1:0.0037123419 2:7.3868883e-07 
-10 1:0.0038670228 2:7.6946753e-07 
-10 1:0.0040217037 2:8.0024623e-07 
-10 1:0.0041763846 2:8.3102493e-07 
-10 1:0.0043310655 2:8.6180363e-07 
-10 1:0.0044857464 2:8.9258233e-07 
-10 1:0.0046404274 2:9.2336103e-07 
-10 1:0.0047951083 2:9.5413974e-07 
-10 1:0.0049497892 2:9.8491844e-07 
-10 1:0.0051044701 2:1.0156971e-06 
-10 1:0.005259151 2:1.0464758e-06 
-10 1:0.0054138319 2:1.0772545e-06 
-10 1:0.0055685128 2:1.1080332e-06 
-10 1:0.0057231937 2:1.1388119e-06 
-10 1:0.0058778746 2:1.1695906e-06 
-10 1:0.0060325556 2:1.2003693e-06 
-10 1:0.0061872365 2:1.231148e-06 
-10 1:0.0063419174 2:1.2619267e-06 
-10 1:0.0064965983 2:1.2927054e-06 
-10 1:0.0066512792 2:1.3234841e-06 
-10 1:0.0068059601 2:1.3542629e-06 
-10 1:0.006960641 2:1.3850416e-06 
-10 1:0.0071153219 2:1.4158203e-06 
-10 1:0.0072700029 2:1.446599e-06 
-10 1:0.0074246838 2:1.4773777e-06 
-10 1:0.0075793647 2:1.5081564e-06 
-10 1:0.0077340456 2:1.5389351e-06 
-10 1:0.0078887265 2:1.5697138e-06 
-10 1:0.0080434074 2:1.6004925e-06 
-10 1:0.0081980883 2:1.6312712e-06 
-10 1:0.0083527692 2:1.6620499e-06 
-10 1:0.0085074501 2:1.6928286e-06 
-10 1:0.0086621311 2:1.7236073e-06 
-10 1:0.008816812 2:1.754386e-06 
-10 1:0.0089714929 2:1.7851647e-06 
-10 1:0.0091261738 2:1.8159434e-06 
-10 1:0.0092808547 2:1.8467221e-06 
-10 1:0.0094355356 2:1.8775008e-06 
-10 1:0.0095902165 2:1.9082795e-06 
-10 1:0.0097448974 2:1.9390582e-06 
-10 1:0.0098995784 2:1.9698369e-06 
-10 1:0.010054259 2:2.0006156e-06 
-10 1:0.01020894 2:2.0313943e-06 
-10 1:0.010363621 2:2.062173e-06 
-10 1:0.010518302 2:2.0929517e-06 
-10 1:0.010672983 2:2.1237304e-06 
-10 1:0.010827664 2:2.1545091e-06 
-10 1:0.010982345 2:2.1852878e-06 
-10 1:0.011137026 2:2.2160665e-06 
-10 1:0.011291707 2:2.2468452e-06 
-10 1:0.011446387 2:2.2776239e-06 
-10 1:0.011601068 2:2.3084026e-06 
-10 1:0.011755749 2:2.3391813e-06 
-10 1:0.01191043 2:2.36996e-06 
-10 1:0.012065111 2:2.4007387e-06 
-10 1:0.012219792 2:2.4315174e-06 
-10 1:0.012374473 2:2.4622961e-06 
-10 1:0.012529154 2:2.4930748e-06 
-10 1:0.012683835 2:2.5238535e-06 
-10 1:0.012838516 2:2.5546322e-06 
-10 1:0.012993197 2:2.5854109e-06 
-10 1:0.013147877 2:2.6161896e-06 
-10 1:0.013302558 2:2.6469683e-06 
-10 1:0.013457239 2:2.677747e-06 
-10 1:0.01361192 2:2.7085257e-06 
-10 1:0.013766601 2:2.7393044e-06 
-10 1:0.013921282 2:2.7700831e-06 
-10 1:0.014075963 2:2.8008618e-06 
-10 1:0.014230644 2:2.8316405e-06 
-10 1:0.014385325 2:2.8624192e-06 
-10 1:0.014540006 2:2.8931979e-06 
-10 1:0.014694687 2:2.9239766e-06 
-10 1:0.014849368 2:2.9547553e-06 
-10 1:0.015004048 2:2.985534e-06 
-10 1:0.015158729 2:3.0163127e-06 
-10 1:0.01531341 2:3.0470914e-06 
-10 1:0.015468091 2:3.0778701e-06 
-10 1:0.015622772 2:3.1086488e-06 
-10 1:0.015777453 2:3.1394275e-06 
-10 1:0.015932134 2:3.1702062e-06 
-10 1:0.016086815 2:3.2009849e-06 
-10 1:0.016241496 2:3.2317636e-06 
-10 1:0.016396177 2:3.2625423e-06 
-10 1:0.016550858 2:3.293321e-06 
-10 1:0.016705538 2:3.3240997e-06 
-10 1:0.016860219 2:3.3548784e-06 
-10 1:0.0170149 2:3.3856571e-06 
-10 1:0.017169581 2:3.4164358e-06 
-4.5004100366403454 1:0.017324262 2:3.4472145e-06 
4.4467630160171536 1:0.020572561 2:4.0935673e-06 
10 1:0.020727242 2:4.124346e-06 
10 1:0.020881923 2:4.1551247e-06 
10 1:0.021036604 2:4.1859034e-06 
10 1:0.021191285 2:4.2166821e-06 
10 1:0.021345966 2:4.2474608e-06 
10 1:0.021500647 2:4.2782395e-06 
10 1:0.021655328 2:4.3090182e-06 
10 1:0.021810009 2:4.3397969e-06 
10 1:0.021964689 2:4.3705756e-06 
10 1:0.02211937 2:4.4013543e-06 
10 1:0.022274051 2:4.432133e-06 
10 1:0.022428732 2:4.4629117e-06 
10 1:0.022583413 2:4.4936904e-06 
10 1:0.022738094 2:4.5244691e-06 
10 1:0.022892775 2:4.5552478e-06 
10 1:0.023047456 2:4.5860265e-06 
10 1:0.023202137 2:4.6168052e-06 
10 1:0.023356818 2:4.6475839e-06 
10 1:0.023511499 2:4.6783626e-06 
10 1:0.023666179 2:4.7091413e-06 
10 1:0.02382086 2:4.73992e-06 
10 1:0.023975541 2:4.7706987e-06 
10 1:0.024130222 2:4.8014774e-06 
10 1:0.024284903 2:4.8322561e-06 
10 1:0.024439584 2:4.8630348e-06 
10 1:0.024594265 2:4.8938135e-06 
10 1:0.024748946 2:4.9245922e-06 
10 1:0.024903627 2:4.9553709e-06 
10 1:0.025058308 2:4.9861496e-06 
10 1:0.025212989 2:5.0169283e-06 
10 1:0.02536767 2:5.047707e-06 
10 1:0.02552235 2:5.0784857e-06 
10 1:0.025677031 2:5.1092644e-06 
10 1:0.025831712 2:5.1400431e-06 
10 1:0.025986393 2:5.1708218e-06 
10 1:0.026141074 2:5.2016005e-06 
10 1:0.026295755 2:5.2323792e-06 
10 1:0.026450436 2:5.2631579e-06 
10 1:0.026605117 2:5.2939366e-06 
10 1:0.026759798 2:5.3247153e-06 
10 1:0.026914479 2:5.355494e-06 
10 1:0.02706916 2:5.3862727e-06 
10 1:0.02722384 2:5.4170514e-06 
10 1:0.027378521 2:5.4478301e-06 
10 1:0.027533202 2:5.4786088e-06 
10 1:0.027687883 2:5.5093875e-06 
10 1:0.027842564 2:5.5401662e-06 
10 1:0.027997245 2:5.5709449e-06 
10 1:0.028151926 2:5.6017236e-06 
10 1:0.028306607 2:5.6325023e-06 
10 1:0.028461288 2:5.663281e-06 
10 1:0.028615969 2:5.6940597e-06 
10 1:0.02877065 2:5.7248384e-06 
10 1:0.02892533 2:5.7556171e-06 
10 1:0.029080011 2:5.7863958e-06 
10 1:0.029234692 2:5.8171745e-06 
10 1:0.029389373 2:5.8479532e-06 
10 1:0.029544054 2:5.8787319e-06 
10 1:0.029698735 2:5.9095106e-06 
10 1:0.029853416 2:5.9402893e-06 
10 1:0.030008097 2:5.971068e-06 
10 1:0.030162778 2:6.0018467e-06 
10 1:0.030317459 2:6.0326254e-06 
10 1:0.03047214 2:6.0634041e-06 
10 1:0.030626821 2:6.0941828e-06 
10 1:0.030781501 2:6.1249615e-06 
10 1:0.030936182 2:6.1557402e-06 
10 1:0.031090863 2:6.1865189e-06 
10 1:0.031245544 2:6.2172976e-06 
10 1:0.031400225 2:6.2480763e-06 
10 1:0.031554906 2:6.278855e-06 
10 1:0.031709587 2:6.3096337e-06 
10 1:0.031864268 2:6.3404124e-06 
10 1:0.032018949 2:6.3711911e-06 
10 1:0.03217363 2:6.4019698e-06 
10 1:0.032328311 2:6.4327485e-06 
10 1:0.032482991 2:6.4635272e-06 
10 1:0.032637672 2:6.4943059e-06 
10 1:0.032792353 2:6.5250846e-06 
10 1:0.032947034 2:6.5558633e-06 
10 1:0.033101715 2:6.586642e-06 
10 1:0.033256396 2:6.6174207e-06 
10 1:0.033411077 2:6.6481994e-06 
10 1:0.033565758 2:6.6789781e-06 
10 1:0.033720439 2:6.7097568e-06 
10 1:0.03387512 2:6.7405355e-06 
10 1:0.034029801 2:6.7713143e-06 
10 1:0.034184481 2:6.802093e-06 
10 1:0.034339162 2:6.8328717e-06 
10 1:0.034493843 2:6.8636504e-06 
10 1:0.034648524 2:6.8944291e-06 
10 1:0.034803205 2:6.9252078e-06 
10 1:0.034957886 2:6.9559865e-06 
10 1:0.035112567 2:6.9867652e-06 
10 1:0.035267248 2:7.0175439e-06 
10 1:0.035421929 2:7.0483226e-06 
10 1:0.03557661 2:7.0791013e-06 
10 1:0.035731291 2:7.10988e-06 
10 1:0.035885972 2:7.1406587e-06 
10 1:0.036040652 2:7.1714374e-06 
10 1:0.036195333 2:7.2022161e-06 
10 1:0.036350014 2:7.2329948e-06 
10 1:0.036504695 2:7.2637735e-06 
10 1:0.036659376 2:7.2945522e-06 
10 1:0.036814057 2:7.3253309e-06 
10 1:0.036968738 2:7.3561096e-06 
10 1:0.037123419 2:7.3868883e-06 
10 1:0.0372781 2:7.417667e-06 
10 1:0.037432781 2:7.4484457e-06 
10 1:0.037587462 2:7.4792244e-06 
10 1:0.037742142 2:7.5100031e-06 
10 1:0.037896823 2:7.5407818e-06 
10 1:0.038051504 2:7.5715605e-06 
10 1:0.038206185 2:7.6023392e-06 
10 1:0.038360866 2:7.6331179e-06 
10 1:0.038515547 2:7.6638966e-06 
10 1:0.038670228 2:7.6946753e-06 
10 1:0.038824909 2:7.725454e-06 
10 1:0.03897959 2:7.7562327e-06 
10 1:0.039134271 2:7.7870114e-06 
10 1:0.039288952 2:7.8177901e-06 
10 1:0.039443632 2:7.8485688e-06 
10 1:0.039598313 2:7.8793475e-06 
10 1:0.039752994 2:7.9101262e-06 
10 1:0.039907675 2:7.9409049e-06 
10 1:0.040062356 2:7.9716836e-06 
10 1:0.040217037 2:8.0024623e-06 
10 1:0.040371718 2:8.033241e-06 
10 1:0.040526399 2:8.0640197e-06 
10 1:0.04068108 2:8.0947984e-06 
10 1:0.040835761 2:8.1255771e-06 
10 1:0.040990442 2:8.1563558e-06 
10 1:0.041145123 2:8.1871345e-06 
10 1:0.041299803 2:8.2179132e-06 
10 1:0.041454484 2:8.2486919e-06 
10 1:0.041609165 2:8.2794706e-06 
10 1:0.041763846 2:8.3102493e-06 
10 1:0.041918527 2:8.341028e-06 
10 1:0.042073208 2:8.3718067e-06 
10 1:0.042227889 2:8.4025854e-06 
10 1:0.04238257 2:8.4333641e-06 
10 1:0.042537251 2:8.4641428e-06 
10 1:0.042691932 2:8.4949215e-06 
10 1:0.042846613 2:8.5257002e-06 
10 1:0.043001293 2:8.5564789e-06 
10 1:0.043155974 2:8.5872576e-06 
10 1:0.043310655 2:8.6180363e-06 
10 1:0.043465336 2:8.648815e-06 
10 1:0.043620017 2:8.6795937e-06 
10 1:0.043774698 2:8.7103724e-06 
10 1:0.043929379 2:8.7411511e-06 
10 1:0.04408406 2:8.7719298e-06 
10 1:0.044238741 2:8.8027085e-06 
10 1:0.044393422 2:8.8334872e-06 
10 1:0.044548103 2:8.8642659e-06 
10 1:0.044702783 2:8.8950446e-06 
10 1:0.044857464 2:8.9258233e-06 
10 1:0.045012145 2:8.956602e-06 
10 1:0.045166826 2:8.9873807e-06 
10 1:0.045321507 2:9.0181594e-06 
10 1:0.045476188 2:9.0489381e-06 
10 1:0.045630869 2:9.0797168e-06 
10 1:0.04578555 2:9.1104955e-06 
10 1:0.045940231 2:9.1412742e-06 
10 1:0.046094912 2:9.1720529e-06 
10 1:0.046249593 2:9.2028316e-06 
10 1:0.046404274 2:9.2336103e-06 
10 1:0.046558954 2:9.264389e-06 
10 1:0.046713635 2:9.2951677e-06 
10 1:0.046868316 2:9.3259464e-06 
10 1:0.047022997 2:9.3567251e-06 
10 1:0.047177678 2:9.3875038e-06 
10 1:0.047332359 2:9.4182825e-06 
10 1:0.04748704 2:9.4490612e-06 
10 1:0.047641721 2:9.47984e-06 
10 1:0.047796402 2:9.5106187e-06 
10 1:0.047951083 2:9.5413974e-06 
10 1:0.048105764 2:9.5721761e-06 
10 1:0.048260444 2:9.6029548e-06 
10 1:0.048415125 2:9.6337335e-06 
10 1:0.048569806 2:9.6645122e-06 
10 1:0.048724487 2:9.6952909e-06 
10 1:0.048879168 2:9.7260696e-06 
10 1:0.049033849 2:9.7568483e-06 
10 1:0.04918853 2:9.787627e-06 
10 1:0.049343211 2:9.8184057e-06 
10 1:0.049497892 2:9.8491844e-06 
10 1:0.049652573 2:9.8799631e-06 
10 1:0.049807254 2:9.9107418e-06 
10 1:0.049961934 2:9.9415205e-06 
10 1:0.050116615 2:9.9722992e-06 
10 1:0.050271296 2:1.0003078e-05 
10 1:0.050425977 2:1.0033857e-05 
10 1:0.050580658 2:1.0064635e-05 
10 1:0.050735339 2:1.0095414e-05 
10 1:0.05089002 2:1.0126193e-05 
10 1:0.051044701 2:1.0156971e-05 
10 1:0.051199382 2:1.018775e-05 
10 1:0.051354063 2:1.0218529e-05 
10 1:0.051508744 2:1.0249307e-05 
10 1:0.051663425 2:1.0280086e-05 
10 1:0.051818105 2:1.0310865e-05 
10 1:0.051972786 2:1.0341644e-05 
10 1:0.052127467 2:1.0372422e-05 
10 1:0.052282148 2:1.0403201e-05 
10 1:0.052436829 2:1.043398e-05 
10 1:0.05259151 2:1.0464758e-05 
10 1:0.052746191 2:1.0495537e-05 
10 1:0.052900872 2:1.0526316e-05 
10 1:0.053055553 2:1.0557094e-05 
10 1:0.053210234 2:1.0587873e-05 
10 1:0.053364915 2:1.0618652e-05 
10 1:0.053519595 2:1.0649431e-05 
10 1:0.053674276 2:1.0680209e-05 
10 1:0.053828957 2:1.0710988e-05 
10 1:0.053983638 2:1.0741767e-05 
10 1:0.054138319 2:1.0772545e-05 
10 1:0.054293 2:1.0803324e-05 
10 1:0.054447681 2:1.0834103e-05 
10 1:0.054602362 2:1.0864882e-05 
10 1:0.054757043 2:1.089566e-05 
10 1:0.054911724 2:1.0926439e-05 
10 1:0.055066405 2:1.0957218e-05 
10 1:0.055221085 2:1.0987996e-05 
10 1:0.055375766 2:1.1018775e-05 
10 1:0.055530447 2:1.1049554e-05 
10 1:0.055685128 2:1.1080332e-05 
10 1:0.055839809 2:1.1111111e-05 
10 1:0.05599449 2:1.114189e-05 
10 1:0.056149171 2:1.1172669e-05 
10 1:0.056303852 2:1.1203447e-05 
10 1:0.056458533 2:1.1234226e-05 
10 1:0.056613214 2:1.1265005e-05 
10 1:0.056767895 2:1.1295783e-05 
10 1:0.056922576 2:1.1326562e-05 
10 1:0.057077256 2:1.1357341e-05 
10 1:0.057231937 2:1.1388119e-05 
10 1:0.057386618 2:1.1418898e-05 
10 1:0.057541299 2:1.1449677e-05 
10 1:0.05769598 2:1.1480456e-05 
10 1:0.057850661 2:1.1511234e-05 
10 1:0.058005342 2:1.1542013e-05 
10 1:0.058160023 2:1.1572792e-05 
10 1:0.058314704 2:1.160357e-05 
10 1:0.058469385 2:1.1634349e-05 
10 1:0.058624066 2:1.1665128e-05 
10 1:0.058778746 2:1.1695906e-05 
10 1:0.058933427 2:1.1726685e-05 
10 1:0.059088108 2:1.1757464e-05 
10 1:0.059242789 2:1.1788243e-05 
10 1:0.05939747 2:1.1819021e-05 
10 1:0.059552151 2:1.18498e-05 
10 1:0.059706832 2:1.1880579e-05 
10 1:0.059861513 2:1.1911357e-05 
10 1:0.060016194 2:1.1942136e-05 
10 1:0.060170875 2:1.1972915e-05 
10 1:0.060325556 2:1.2003693e-05 
10 1:0.060480236 2:1.2034472e-05 
10 1:0.060634917 2:1.2065251e-05 
10 1:0.060789598 2:1.209603e-05 
10 1:0.060944279 2:1.2126808e-05 
10 1:0.06109896 2:1.2157587e-05 
10 1:0.061253641 2:1.2188366e-05 
10 1:0.061408322 2:1.2219144e-05 
10 1:0.061563003 2:1.2249923e-05 
10 1:0.061717684 2:1.2280702e-05 
10 1:0.061872365 2:1.231148e-05 
10 1:0.062027046 2:1.2342259e-05 
10 1:0.062181727 2:1.2373038e-05 
10 1:0.062336407 2:1.2403817e-05 
10 1:0.062491088 2:1.2434595e-05 
10 1:0.062645769 2:1.2465374e-05 
10 1:0.06280045 2:1.2496153e-05 
10 1:0.062955131 2:1.2526931e-05 
10 1:0.063109812 2:1.255771e-05 
10 1:0.063264493 2:1.2588489e-05 
10 1:0.063419174 2:1.2619267e-05 
10 1:0.063573855 2:1.2650046e-05 
10 1:0.063728536 2:1.2680825e-05 
10 1:0.063883217 2:1.2711604e-05 
10 1:0.064037897 2:1.2742382e-05 
10 1:0.064192578 2:1.2773161e-05 
10 1:0.064347259 2:1.280394e-05 
10 1:0.06450194 2:1.2834718e-05 
10 1:0.064656621 2:1.2865497e-05 
10 1:0.064811302 2:1.2896276e-05 
10 1:0.064965983 2:1.2927054e-05 
10 1:0.065120664 2:1.2957833e-05 
10 1:0.065275345 2:1.2988612e-05 
10 1:0.065430026 2:1.3019391e-05 
10 1:0.065584707 2:1.3050169e-05 
10 1:0.065739387 2:1.3080948e-05 
10 1:0.065894068 2:1.3111727e-05 
10 1:0.066048749 2:1.3142505e-05 
10 1:0.06620343 2:1.3173284e-05 
10 1:0.066358111 2:1.3204063e-05 
10 1:0.066512792 2:1.3234841e-05 
10 1:0.066667473 2:1.326562e-05 
10 1:0.066822154 2:1.3296399e-05 
10 1:0.066976835 2:1.3327178e-05 
10 1:0.067131516 2:1.3357956e-05 
10 1:0.067286197 2:1.3388735e-05 
10 1:0.067440878 2:1.3419514e-05 
10 1:0.067595558 2:1.3450292e-05 
10 1:0.067750239 2:1.3481071e-05 
10 1:0.06790492 2:1.351185e-05 
10 1:0.068059601 2:1.3542629e-05 
-8.9223232873977292 1:0.071926624 2:1.4312096e-05 
-10 1:0.072081305 2:1.4342875e-05 
-10 1:0.072235986 2:1.4373653e-05 
-10 1:0.072390667 2:1.4404432e-05 
-10 1:0.072545348 2:1.4435211e-05 
-10 1:0.072700029 2:1.446599e-05 
-10 1:0.072854709 2:1.4496768e-05 
-10 1:0.07300939 2:1.4527547e-05 
-10 1:0.073164071 2:1.4558326e-05 
-10 1:0.073318752 2:1.4589104e-05 
-10 1:0.073473433 2:1.4619883e-05 
-10 1:0.073628114 2:1.4650662e-05 
-10 1:0.073782795 2:1.468144e-05 
-10 1:0.073937476 2:1.4712219e-05 
-10 1:0.074092157 2:1.4742998e-05 
-10 1:0.074246838 2:1.4773777e-05 
-10 1:0.074401519 2:1.4804555e-05 
-10 1:0.074556199 2:1.4835334e-05 
-10 1:0.07471088 2:1.4866113e-05 
-10 1:0.074865561 2:1.4896891e-05 
-10 1:0.075020242 2:1.492767e-05 
-10 1:0.075174923 2:1.4958449e-05 
-10 1:0.075329604 2:1.4989227e-05 
-10 1:0.075484285 2:1.5020006e-05 
-10 1:0.075638966 2:1.5050785e-05 
-10 1:0.075793647 2:1.5081564e-05 
-10 1:0.075948328 2:1.5112342e-05 
-10 1:0.076103009 2:1.5143121e-05 
-10 1:0.076257689 2:1.51739e-05 
-10 1:0.07641237 2:1.5204678e-05 
-10 1:0.076567051 2:1.5235457e-05 
-10 1:0.076721732 2:1.5266236e-05 
-10 1:0.076876413 2:1.5297014e-05 
-10 1:0.077031094 2:1.5327793e-05 
-10 1:0.077185775 2:1.5358572e-05 
-10 1:0.077340456 2:1.5389351e-05 
-10 1:0.077495137 2:1.5420129e-05 
-10 1:0.077649818 2:1.5450908e-05 
-10 1:0.077804499 2:1.5481687e-05 
-10 1:0.07795918 2:1.5512465e-05 
-10 1:0.07811386 2:1.5543244e-05 
-10 1:0.078268541 2:1.5574023e-05 
-10 1:0.078423222 2:1.5604801e-05 
-10 1:0.078577903 2:1.563558e-05 
-10 1:0.078732584 2:1.5666359e-05 
-10 1:0.078887265 2:1.5697138e-05 
-10 1:0.079041946 2:1.5727916e-05 
-10 1:0.079196627 2:1.5758695e-05 
-10 1:0.079351308 2:1.5789474e-05 
-10 1:0.079505989 2:1.5820252e-05 
-10 1:0.07966067 2:1.5851031e-05 
-10 1:0.07981535 2:1.588181e-05 
-10 1:0.079970031 2:1.5912588e-05 
-10 1:0.080124712 2:1.5943367e-05 
-10 1:0.080279393 2:1.5974146e-05 
-10 1:0.080434074 2:1.6004925e-05 
-10 1:0.080588755 2:1.6035703e-05 
-10 1:0.080743436 2:1.6066482e-05 
-10 1:0.080898117 2:1.6097261e-05 
-10 1:0.081052798 2:1.6128039e-05 
-10 1:0.081207479 2:1.6158818e-05 
-10 1:0.08136216 2:1.6189597e-05 
-10 1:0.08151684 2:1.6220376e-05 
-10 1:0.081671521 2:1.6251154e-05 
-10 1:0.081826202 2:1.6281933e-05 
-10 1:0.081980883 2:1.6312712e-05 
-10 1:0.082135564 2:1.634349e-05 
-10 1:0.082290245 2:1.6374269e-05 
-10 1:0.082444926 2:1.6405048e-05 
-10 1:0.082599607 2:1.6435826e-05 
-10 1:0.082754288 2:1.6466605e-05 
-10 1:0.082908969 2:1.6497384e-05 
-10 1:0.08306365 2:1.6528163e-05 
-10 1:0.083218331 2:1.6558941e-05 
-10 1:0.083373011 2:1.658972e-05 
-10 1:0.083527692 2:1.6620499e-05 
-10 1:0.083682373 2:1.6651277e-05 
-10 1:0.083837054 2:1.6682056e-05 
-10 1:0.083991735 2:1.6712835e-05 
-10 1:0.084146416 2:1.6743613e-05 
-10 1:0.084301097 2:1.6774392e-05 
-10 1:0.084455778 2:1.6805171e-05 
-10 1:0.084610459 2:1.683595e-05 
-10 1:0.08476514 2:1.6866728e-05 
-10 1:0.084919821 2:1.6897507e-05 
-10 1:0.085074501 2:1.6928286e-05 
-10 1:0.085229182 2:1.6959064e-05 
-10 1:0.085383863 2:1.6989843e-05 
-10 1:0.085538544 2:1.7020622e-05 
-10 1:0.085693225 2:1.70514e-05 
-10 1:0.085847906 2:1.7082179e-05 
-10 1:0.086002587 2:1.7112958e-05 
-10 1:0.086157268 2:1.7143737e-05 
-10 1:0.086311949 2:1.7174515e-05 
-10 1:0.08646663 2:1.7205294e-05 
-10 1:0.086621311 2:1.7236073e-05 
-10 1:0.086775991 2:1.7266851e-05 
-10 1:0.086930672 2:1.729763e-05 
-10 1:0.087085353 2:1.7328409e-05 
-10 1:0.087240034 2:1.7359187e-05 
-10 1:0.087394715 2:1.7389966e-05 
-10 1:0.087549396 2:1.7420745e-05 
-10 1:0.087704077 2:1.7451524e-05 
-10 1:0.087858758 2:1.7482302e-05 
-10 1:0.088013439 2:1.7513081e-05 
-10 1:0.08816812 2:1.754386e-05 
-10 1:0.088322801 2:1.7574638e-05 
-10 1:0.088477482 2:1.7605417e-05 
-10 1:0.088632162 2:1.7636196e-05 
-10 1:0.088786843 2:1.7666974e-05 
-10 1:0.088941524 2:1.7697753e-05 
-10 1:0.089096205 2:1.7728532e-05 
-10 1:0.089250886 2:1.7759311e-05 
-10 1:0.089405567 2:1.7790089e-05 
-10 1:0.089560248 2:1.7820868e-05 
-10 1:0.089714929 2:1.7851647e-05 
-10 1:0.08986961 2:1.7882425e-05 
-10 1:0.090024291 2:1.7913204e-05 
-10 1:0.090178972 2:1.7943983e-05 
-10 1:0.090333652 2:1.7974761e-05 
-10 1:0.090488333 2:1.800554e-05 
-10 1:0.090643014 2:1.8036319e-05 
-10 1:0.090797695 2:1.8067098e-05 
-10 1:0.090952376 2:1.8097876e-05 
-10 1:0.091107057 2:1.8128655e-05 
-10 1:0.091261738 2:1.8159434e-05 
-10 1:0.091416419 2:1.8190212e-05 
-10 1:0.0915711 2:1.8220991e-05 
-10 1:0.091725781 2:1.825177e-05 
-10 1:0.091880462 2:1.8282548e-05 
-10 1:0.092035142 2:1.8313327e-05 
-10 1:0.092189823 2:1.8344106e-05 
-10 1:0.092344504 2:1.8374885e-05 
-10 1:0.092499185 2:1.8405663e-05 
-10 1:0.092653866 2:1.8436442e-05 
-10 1:0.092808547 2:1.8467221e-05 
-10 1:0.092963228 2:1.8497999e-05 
-10 1:0.093117909 2:1.8528778e-05 
-10 1:0.09327259 2:1.8559557e-05 
-10 1:0.093427271 2:1.8590335e-05 
-10 1:0.093581952 2:1.8621114e-05 
-10 1:0.093736633 2:1.8651893e-05 
-10 1:0.093891313 2:1.8682672e-05 
-10 1:0.094045994 2:1.871345e-05 
-10 1:0.094200675 2:1.8744229e-05 
-10 1:0.094355356 2:1.8775008e-05 
-10 1:0.094510037 2:1.8805786e-05 
-10 1:0.094664718 2:1.8836565e-05 
-10 1:0.094819399 2:1.8867344e-05 
-10 1:0.09497408 2:1.8898122e-05 
-10 1:0.095128761 2:1.8928901e-05 
-10 1:0.095283442 2:1.895968e-05 
-10 1:0.095438123 2:1.8990459e-05 
-10 1:0.095592803 2:1.9021237e-05 
-10 1:0.095747484 2:1.9052016e-05 
-10 1:0.095902165 2:1.9082795e-05 
-10 1:0.096056846 2:1.9113573e-05 
-10 1:0.096211527 2:1.9144352e-05 
-10 1:0.096366208 2:1.9175131e-05 
-10 1:0.096520889 2:1.920591e-05 
-10 1:0.09667557 2:1.9236688e-05 
-10 1:0.096830251 2:1.9267467e-05 
-10 1:0.096984932 2:1.9298246e-05 
-10 1:0.097139613 2:1.9329024e-05 
-10 1:0.097294293 2:1.9359803e-05 
-10 1:0.097448974 2:1.9390582e-05 
-10 1:0.097603655 2:1.942136e-05 
-10 1:0.097758336 2:1.9452139e-05 
-10 1:0.097913017 2:1.9482918e-05 
-10 1:0.098067698 2:1.9513697e-05 
-10 1:0.098222379 2:1.9544475e-05 
-10 1:0.09837706 2:1.9575254e-05 
-10 1:0.098531741 2:1.9606033e-05 
-10 1:0.098686422 2:1.9636811e-05 
-10 1:0.098841103 2:1.966759e-05 
-10 1:0.098995784 2:1.9698369e-05 
-10 1:0.099150464 2:1.9729147e-05 
-10 1:0.099305145 2:1.9759926e-05 
-10 1:0.099459826 2:1.9790705e-05 
-10 1:0.099614507 2:1.9821484e-05 
-10 1:0.099769188 2:1.9852262e-05 
-10 1:0.099923869 2:1.9883041e-05 
-10 1:0.10007855 2:1.991382e-05 
-10 1:0.10023323 2:1.9944598e-05 
-10 1:0.10038791 2:1.9975377e-05 
-10 1:0.10054259 2:2.0006156e-05 
-10 1:0.10069727 2:2.0036934e-05 
-10 1:0.10085195 2:2.0067713e-05 
-10 1:0.10100664 2:2.0098492e-05 
-10 1:0.10116132 2:2.0129271e-05 
-10 1:0.101316 2:2.0160049e-05 
-10 1:0.10147068 2:2.0190828e-05 
-10 1:0.10162536 2:2.0221607e-05 
-10 1:0.10178004 2:2.0252385e-05 
-10 1:0.10193472 2:2.0283164e-05 
-10 1:0.1020894 2:2.0313943e-05 
-10 1:0.10224408 2:2.0344721e-05 
-10 1:0.10239876 2:2.03755e-05 
-10 1:0.10255344 2:2.0406279e-05 
-10 1:0.10270813 2:2.0437058e-05 
-10 1:0.10286281 2:2.0467836e-05 
-10 1:0.10301749 2:2.0498615e-05 
-10 1:0.10317217 2:2.0529394e-05 
-10 1:0.10332685 2:2.0560172e-05 
-10 1:0.10348153 2:2.0590951e-05 
-10 1:0.10363621 2:2.062173e-05 
-10 1:0.10379089 2:2.0652508e-05 
-10 1:0.10394557 2:2.0683287e-05 
-10 1:0.10410025 2:2.0714066e-05 
-10 1:0.10425493 2:2.0744845e-05 
-10 1:0.10440962 2:2.0775623e-05 
-10 1:0.1045643 2:2.0806402e-05 
-10 1:0.10471898 2:2.0837181e-05 
-10 1:0.10487366 2:2.0867959e-05 
-10 1:0.10502834 2:2.0898738e-05 
-10 1:0.10518302 2:2.0929517e-05 
-10 1:0.1053377 2:2.0960295e-05 
-10 1:0.10549238 2:2.0991074e-05 
-10 1:0.10564706 2:2.1021853e-05 
-10 1:0.10580174 2:2.1052632e-05 
-10 1:0.10595642 2:2.108341e-05 
-10 1:0.10611111 2:2.1114189e-05 
-10 1:0.10626579 2:2.1144968e-05 
-10 1:0.10642047 2:2.1175746e-05 
-10 1:0.10657515 2:2.1206525e-05 
-10 1:0.10672983 2:2.1237304e-05 
-10 1:0.10688451 2:2.1268082e-05 
-10 1:0.10703919 2:2.1298861e-05 
-10 1:0.10719387 2:2.132964e-05 
-10 1:0.10734855 2:2.1360419e-05 
-10 1:0.10750323 2:2.1391197e-05 
-10 1:0.10765791 2:2.1421976e-05 
-10 1:0.1078126 2:2.1452755e-05 
-10 1:0.10796728 2:2.1483533e-05 
-10 1:0.10812196 2:2.1514312e-05 
-10 1:0.10827664 2:2.1545091e-05 
-10 1:0.10843132 2:2.1575869e-05 
-10 1:0.108586 2:2.1606648e-05 
-10 1:0.10874068 2:2.1637427e-05 
-10 1:0.10889536 2:2.1668206e-05 
-10 1:0.10905004 2:2.1698984e-05 
-10 1:0.10920472 2:2.1729763e-05 
-10 1:0.1093594 2:2.1760542e-05 
-10 1:0.10951409 2:2.179132e-05 
-10 1:0.10966877 2:2.1822099e-05 
-10 1:0.10982345 2:2.1852878e-05 
-10 1:0.10997813 2:2.1883657e-05 
-10 1:0.11013281 2:2.1914435e-05 
-10 1:0.11028749 2:2.1945214e-05 
-10 1:0.11044217 2:2.1975993e-05 
-10 1:0.11059685 2:2.2006771e-05 
-10 1:0.11075153 2:2.203755e-05 
-10 1:0.11090621 2:2.2068329e-05 
-10 1:0.11106089 2:2.2099107e-05 
-10 1:0.11121558 2:2.2129886e-05 
-10 1:0.11137026 2:2.2160665e-05 
-10 1:0.11152494 2:2.2191444e-05 
-10 1:0.11167962 2:2.2222222e-05 
-10 1:0.1118343 2:2.2253001e-05 
-10 1:0.11198898 2:2.228378e-05 
-10 1:0.11214366 2:2.2314558e-05 
-10 1:0.11229834 2:2.2345337e-05 
-10 1:0.11245302 2:2.2376116e-05 
-10 1:0.1126077 2:2.2406894e-05 
-10 1:0.11276238 2:2.2437673e-05 
-10 1:0.11291707 2:2.2468452e-05 
-10 1:0.11307175 2:2.2499231e-05 
-10 1:0.11322643 2:2.2530009e-05 
-10 1:0.11338111 2:2.2560788e-05 
-10 1:0.11353579 2:2.2591567e-05 
-10 1:0.11369047 2:2.2622345e-05 
-10 1:0.11384515 2:2.2653124e-05 
-10 1:0.11399983 2:2.2683903e-05 
-10 1:0.11415451 2:2.2714681e-05 
-10 1:0.11430919 2:2.274546e-05 
-10 1:0.11446387 2:2.2776239e-05 
-10 1:0.11461856 2:2.2807018e-05 
-10 1:0.11477324 2:2.2837796e-05 
-10 1:0.11492792 2:2.2868575e-05 
-10 1:0.1150826 2:2.2899354e-05 
-10 1:0.11523728 2:2.2930132e-05 
-10 1:0.11539196 2:2.2960911e-05 
-10 1:0.11554664 2:2.299169e-05 
-10 1:0.11570132 2:2.3022468e-05 
-10 1:0.115856 2:2.3053247e-05 
-10 1:0.11601068 2:2.3084026e-05 
-10 1:0.11616536 2:2.3114805e-05 
-10 1:0.11632005 2:2.3145583e-05 
-10 1:0.11647473 2:2.3176362e-05 
-10 1:0.11662941 2:2.3207141e-05 
-10 1:0.11678409 2:2.3237919e-05 
-10 1:0.11693877 2:2.3268698e-05 
-10 1:0.11709345 2:2.3299477e-05 
-10 1:0.11724813 2:2.3330255e-05 
-10 1:0.11740281 2:2.3361034e-05 
-10 1:0.11755749 2:2.3391813e-05 
-10 1:0.11771217 2:2.3422592e-05 
-10 1:0.11786685 2:2.345337e-05 
-10 1:0.11802154 2:2.3484149e-05 
-10 1:0.11817622 2:2.3514928e-05 
-10 1:0.1183309 2:2.3545706e-05 
-10 1:0.11848558 2:2.3576485e-05 
-10 1:0.11864026 2:2.3607264e-05 
-10 1:0.11879494 2:2.3638042e-05 
-10 1:0.11894962 2:2.3668821e-05 
-10 1:0.1191043 2:2.36996e-05 
-10 1:0.11925898 2:2.3730379e-05 
-10 1:0.11941366 2:2.3761157e-05 
-10 1:0.11956834 2:2.3791936e-05 
-10 1:0.11972303 2:2.3822715e-05 
-10 1:0.11987771 2:2.3853493e-05 
-10 1:0.12003239 2:2.3884272e-05 
-10 1:0.12018707 2:2.3915051e-05 
-10 1:0.12034175 2:2.3945829e-05 
-10 1:0.12049643 2:2.3976608e-05 
-10 1:0.12065111 2:2.4007387e-05 
-10 1:0.12080579 2:2.4038166e-05 
-10 1:0.12096047 2:2.4068944e-05 
-10 1:0.12111515 2:2.4099723e-05 
-10 1:0.12126983 2:2.4130502e-05 
-10 1:0.12142452 2:2.416128e-05 
-10 1:0.1215792 2:2.4192059e-05 
-10 1:0.12173388 2:2.4222838e-05 
-10 1:0.12188856 2:2.4253616e-05 
-10 1:0.12204324 2:2.4284395e-05 
-10 1:0.12219792 2:2.4315174e-05 
-10 1:0.1223526 2:2.4345953e-05 
-10 1:0.12250728 2:2.4376731e-05 
-10 1:0.12266196 2:2.440751e-05 
-10 1:0.12281664 2:2.4438289e-05 
-10 1:0.12297132 2:2.4469067e-05 
-10 1:0.12312601 2:2.4499846e-05 
-10 1:0.12328069 2:2.4530625e-05 
-10 1:0.12343537 2:2.4561404e-05 
-10 1:0.12359005 2:2.4592182e-05 
-10 1:0.12374473 2:2.4622961e-05 
-10 1:0.12389941 2:2.465374e-05 
-10 1:0.12405409 2:2.4684518e-05 
-10 1:0.12420877 2:2.4715297e-05 
-10 1:0.12436345 2:2.4746076e-05 
-10 1:0.12451813 2:2.4776854e-05 
-10 1:0.12467281 2:2.4807633e-05 
-10 1:0.1248275 2:2.4838412e-05 
-10 1:0.12498218 2:2.4869191e-05 
-10 1:0.12513686 2:2.4899969e-05 
-10 1:0.12529154 2:2.4930748e-05 
-10 1:0.12544622 2:2.4961527e-05 
-10 1:0.1256009 2:2.4992305e-05 
-10 1:0.12575558 2:2.5023084e-05 
-10 1:0.12591026 2:2.5053863e-05 
-10 1:0.12606494 2:2.5084641e-05 
-10 1:0.12621962 2:2.511542e-05 
-10 1:0.1263743 2:2.5146199e-05 
-10 1:0.12652899 2:2.5176978e-05 
-10 1:0.12668367 2:2.5207756e-05 
-10 1:0.12683835 2:2.5238535e-05 
-10 1:0.12699303 2:2.5269314e-05 
-10 1:0.12714771 2:2.5300092e-05 
-10 1:0.12730239 2:2.5330871e-05 
-10 1:0.12745707 2:2.536165e-05 
-10 1:0.12761175 2:2.5392428e-05 
-10 1:0.12776643 2:2.5423207e-05 
-10 1:0.12792111 2:2.5453986e-05 
-10 1:0.12807579 2:2.5484765e-05 
-10 1:0.12823048 2:2.5515543e-05 
-10 1:0.12838516 2:2.5546322e-05 
-10 1:0.12853984 2:2.5577101e-05 
-10 1:0.12869452 2:2.5607879e-05 
-10 1:0.1288492 2:2.5638658e-05 
-10 1:0.12900388 2:2.5669437e-05 
-10 1:0.12915856 2:2.5700215e-05 
-10 1:0.12931324 2:2.5730994e-05 
-10 1:0.12946792 2:2.5761773e-05 
-10 1:0.1296226 2:2.5792552e-05 
-10 1:0.12977728 2:2.582333e-05 
-10 1:0.12993197 2:2.5854109e-05 
-10 1:0.13008665 2:2.5884888e-05 
-10 1:0.13024133 2:2.5915666e-05 
-10 1:0.13039601 2:2.5946445e-05 
-10 1:0.13055069 2:2.5977224e-05 
-10 1:0.13070537 2:2.6008002e-05 
-10 1:0.13086005 2:2.6038781e-05 
-10 1:0.13101473 2:2.606956e-05 
-10 1:0.13116941 2:2.6100339e-05 
-10 1:0.13132409 2:2.6131117e-05 
-10 1:0.13147877 2:2.6161896e-05 
-10 1:0.13163346 2:2.6192675e-05 
-10 1:0.13178814 2:2.6223453e-05 
-10 1:0.13194282 2:2.6254232e-05 
-10 1:0.1320975 2:2.6285011e-05 
-10 1:0.13225218 2:2.6315789e-05 
-10 1:0.13240686 2:2.6346568e-05 
-10 1:0.13256154 2:2.6377347e-05 
-10 1:0.13271622 2:2.6408126e-05 
-10 1:0.1328709 2:2.6438904e-05 
-10 1:0.13302558 2:2.6469683e-05 
-10 1:0.13318027 2:2.6500462e-05 
-10 1:0.13333495 2:2.653124e-05 
-10 1:0.13348963 2:2.6562019e-05 
-10 1:0.13364431 2:2.6592798e-05 
-10 1:0.13379899 2:2.6623576e-05 
-10 1:0.13395367 2:2.6654355e-05 
-10 1:0.13410835 2:2.6685134e-05 
-10 1:0.13426303 2:2.6715913e-05 
-10 1:0.13441771 2:2.6746691e-05 
-10 1:0.13457239 2:2.677747e-05 
-10 1:0.13472707 2:2.6808249e-05 
-10 1:0.13488176 2:2.6839027e-05 
-10 1:0.13503644 2:2.6869806e-05 
-10 1:0.13519112 2:2.6900585e-05 
-10 1:0.1353458 2:2.6931363e-05 
-10 1:0.13550048 2:2.6962142e-05 
-10 1:0.13565516 2:2.6992921e-05 
-10 1:0.13580984 2:2.70237e-05 
-10 1:0.13596452 2:2.7054478e-05 
-10 1:0.1361192 2:2.7085257e-05 
-10 1:0.13627388 2:2.7116036e-05 
8.6884599879834994 1:0.14122367 2:2.8100954e-05 
10 1:0.14137835 2:2.8131733e-05 
10 1:0.14153303 2:2.8162512e-05 
10 1:0.14168772 2:2.819329e-05 
10 1:0.1418424 2:2.8224069e-05 
10 1:0.14199708 2:2.8254848e-05 
10 1:0.14215176 2:2.8285626e-05 
10 1:0.14230644 2:2.8316405e-05 
10 1:0.14246112 2:2.8347184e-05 
10 1:0.1426158 2:2.8377962e-05 
10 1:0.14277048 2:2.8408741e-05 
10 1:0.14292516 2:2.843952e-05 
10 1:0.14307984 2:2.8470299e-05 
10 1:0.14323452 2:2.8501077e-05 
10 1:0.14338921 2:2.8531856e-05 
10 1:0.14354389 2:2.8562635e-05 
10 1:0.14369857 2:2.8593413e-05 
10 1:0.14385325 2:2.8624192e-05 
10 1:0.14400793 2:2.8654971e-05 
10 1:0.14416261 2:2.8685749e-05 
10 1:0.14431729 2:2.8716528e-05 
10 1:0.14447197 2:2.8747307e-05 
10 1:0.14462665 2:2.8778086e-05 
10 1:0.14478133 2:2.8808864e-05 
10 1:0.14493601 2:2.8839643e-05 
10 1:0.1450907 2:2.8870422e-05 
10 1:0.14524538 2:2.89012e-05 
10 1:0.14540006 2:2.8931979e-05 
10 1:0.14555474 2:2.8962758e-05 
10 1:0.14570942 2:2.8993536e-05 
10 1:0.1458641 2:2.9024315e-05 
10 1:0.14601878 2:2.9055094e-05 
10 1:0.14617346 2:2.9085873e-05 
10 1:0.14632814 2:2.9116651e-05 
10 1:0.14648282 2:2.914743e-05 
10 1:0.1466375 2:2.9178209e-05 
10 1:0.14679219 2:2.9208987e-05 
10 1:0.14694687 2:2.9239766e-05 
10 1:0.14710155 2:2.9270545e-05 
10 1:0.14725623 2:2.9301323e-05 
10 1:0.14741091 2:2.9332102e-05 
10 1:0.14756559 2:2.9362881e-05 
10 1:0.14772027 2:2.939366e-05 
10 1:0.14787495 2:2.9424438e-05 
10 1:0.14802963 2:2.9455217e-05 
10 1:0.14818431 2:2.9485996e-05 
10 1:0.14833899 2:2.9516774e-05 
10 1:0.14849368 2:2.9547553e-05 
10 1:0.14864836 2:2.9578332e-05 
10 1:0.14880304 2:2.960911e-05 
10 1:0.14895772 2:2.9639889e-05 
10 1:0.1491124 2:2.9670668e-05 
10 1:0.14926708 2:2.9701447e-05 
10 1:0.14942176 2:2.9732225e-05 
10 1:0.14957644 2:2.9763004e-05 
10 1:0.14973112 2:2.9793783e-05 
10 1:0.1498858 2:2.9824561e-05 
10 1:0.15004048 2:2.985534e-05 
10 1:0.15019517 2:2.9886119e-05 
10 1:0.15034985 2:2.9916898e-05 
10 1:0.15050453 2:2.9947676e-05 
10 1:0.15065921 2:2.9978455e-05 
10 1:0.15081389 2:3.0009234e-05 
10 1:0.15096857 2:3.0040012e-05 
10 1:0.15112325 2:3.0070791e-05 
10 1:0.15127793 2:3.010157e-05 
10 1:0.15143261 2:3.0132348e-05 
10 1:0.15158729 2:3.0163127e-05 
10 1:0.15174197 2:3.0193906e-05 
10 1:0.15189666 2:3.0224685e-05 
10 1:0.15205134 2:3.0255463e-05 
10 1:0.15220602 2:3.0286242e-05 
10 1:0.1523607 2:3.0317021e-05 
10 1:0.15251538 2:3.0347799e-05 
10 1:0.15267006 2:3.0378578e-05 
10 1:0.15282474 2:3.0409357e-05 
10 1:0.15297942 2:3.0440135e-05 
10 1:0.1531341 2:3.0470914e-05 
10 1:0.15328878 2:3.0501693e-05 
10 1:0.15344346 2:3.0532472e-05 
10 1:0.15359815 2:3.056325e-05 
10 1:0.15375283 2:3.0594029e-05 
10 1:0.15390751 2:3.0624808e-05 
10 1:0.15406219 2:3.0655586e-05 
10 1:0.15421687 2:3.0686365e-05 
10 1:0.15437155 2:3.0717144e-05 
10 1:0.15452623 2:3.0747922e-05 
10 1:0.15468091 2:3.0778701e-05 
10 1:0.15483559 2:3.080948e-05 
10 1:0.15499027 2:3.0840259e-05 
10 1:0.15514495 2:3.0871037e-05 
10 1:0.15529964 2:3.0901816e-05 
10 1:0.15545432 2:3.0932595e-05 
10 1:0.155609 2:3.0963373e-05 
10 1:0.15576368 2:3.0994152e-05 
10 1:0.15591836 2:3.1024931e-05 
10 1:0.15607304 2:3.1055709e-05 
10 1:0.15622772 2:3.1086488e-05 
10 1:0.1563824 2:3.1117267e-05 
10 1:0.15653708 2:3.1148046e-05 
10 1:0.15669176 2:3.1178824e-05 
10 1:0.15684644 2:3.1209603e-05 
10 1:0.15700113 2:3.1240382e-05 
10 1:0.15715581 2:3.127116e-05 
10 1:0.15731049 2:3.1301939e-05 
10 1:0.15746517 2:3.1332718e-05 
10 1:0.15761985 2:3.1363496e-05 
10 1:0.15777453 2:3.1394275e-05 
10 1:0.15792921 2:3.1425054e-05 
10 1:0.15808389 2:3.1455833e-05 
10 1:0.15823857 2:3.1486611e-05 
10 1:0.15839325 2:3.151739e-05 
10 1:0.15854793 2:3.1548169e-05 
10 1:0.15870262 2:3.1578947e-05 
10 1:0.1588573 2:3.1609726e-05 
10 1:0.15901198 2:3.1640505e-05 
10 1:0.15916666 2:3.1671283e-05 
10 1:0.15932134 2:3.1702062e-05 
10 1:0.15947602 2:3.1732841e-05 
10 1:0.1596307 2:3.176362e-05 
10 1:0.15978538 2:3.1794398e-05 
10 1:0.15994006 2:3.1825177e-05 
10 1:0.16009474 2:3.1855956e-05 
10 1:0.16024942 2:3.1886734e-05 
10 1:0.16040411 2:3.1917513e-05 
10 1:0.16055879 2:3.1948292e-05 
10 1:0.16071347 2:3.197907e-05 
10 1:0.16086815 2:3.2009849e-05 
10 1:0.16102283 2:3.2040628e-05 
10 1:0.16117751 2:3.2071407e-05 
10 1:0.16133219 2:3.2102185e-05 
10 1:0.16148687 2:3.2132964e-05 
10 1:0.16164155 2:3.2163743e-05 
10 1:0.16179623 2:3.2194521e-05 
10 1:0.16195091 2:3.22253e-05 
10 1:0.1621056 2:3.2256079e-05 
10 1:0.16226028 2:3.2286857e-05 
10 1:0.16241496 2:3.2317636e-05 
10 1:0.16256964 2:3.2348415e-05 
10 1:0.16272432 2:3.2379194e-05 
10 1:0.162879 2:3.2409972e-05 
10 1:0.16303368 2:3.2440751e-05 
10 1:0.16318836 2:3.247153e-05 
10 1:0.16334304 2:3.2502308e-05 
10 1:0.16349772 2:3.2533087e-05 
10 1:0.1636524 2:3.2563866e-05 
10 1:0.16380709 2:3.2594645e-05 
10 1:0.16396177 2:3.2625423e-05 
10 1:0.16411645 2:3.2656202e-05 
10 1:0.16427113 2:3.2686981e-05 
10 1:0.16442581 2:3.2717759e-05 
10 1:0.16458049 2:3.2748538e-05 
10 1:0.16473517 2:3.2779317e-05 
10 1:0.16488985 2:3.2810095e-05 
10 1:0.16504453 2:3.2840874e-05 
10 1:0.16519921 2:3.2871653e-05 
10 1:0.16535389 2:3.2902432e-05 
10 1:0.16550858 2:3.293321e-05 
10 1:0.16566326 2:3.2963989e-05 
10 1:0.16581794 2:3.2994768e-05 
10 1:0.16597262 2:3.3025546e-05 
10 1:0.1661273 2:3.3056325e-05 
10 1:0.16628198 2:3.3087104e-05 
10 1:0.16643666 2:3.3117882e-05 
10 1:0.16659134 2:3.3148661e-05 
10 1:0.16674602 2:3.317944e-05 
10 1:0.1669007 2:3.3210219e-05 
10 1:0.16705538 2:3.3240997e-05 
10 1:0.16721007 2:3.3271776e-05 
10 1:0.16736475 2:3.3302555e-05 
10 1:0.16751943 2:3.3333333e-05 
10 1:0.16767411 2:3.3364112e-05 
10 1:0.16782879 2:3.3394891e-05 
10 1:0.16798347 2:3.3425669e-05 
10 1:0.16813815 2:3.3456448e-05 
10 1:0.16829283 2:3.3487227e-05 
10 1:0.16844751 2:3.3518006e-05 
10 1:0.16860219 2:3.3548784e-05 
10 1:0.16875687 2:3.3579563e-05 
10 1:0.16891156 2:3.3610342e-05 
10 1:0.16906624 2:3.364112e-05 
10 1:0.16922092 2:3.3671899e-05 
10 1:0.1693756 2:3.3702678e-05 
10 1:0.16953028 2:3.3733456e-05 
10 1:0.16968496 2:3.3764235e-05 
10 1:0.16983964 2:3.3795014e-05 
10 1:0.16999432 2:3.3825793e-05 
10 1:0.170149 2:3.3856571e-05 
10 1:0.17030368 2:3.388735e-05 
10 1:0.17045836 2:3.3918129e-05 
10 1:0.17061305 2:3.3948907e-05 
10 1:0.17076773 2:3.3979686e-05 
10 1:0.17092241 2:3.4010465e-05 
10 1:0.17107709 2:3.4041243e-05 
10 1:0.17123177 2:3.4072022e-05 
10 1:0.17138645 2:3.4102801e-05 
10 1:0.17154113 2:3.413358e-05 
10 1:0.17169581 2:3.4164358e-05 
10 1:0.17185049 2:3.4195137e-05 
10 1:0.17200517 2:3.4225916e-05 
10 1:0.17215985 2:3.4256694e-05 
10 1:0.17231454 2:3.4287473e-05 
10 1:0.17246922 2:3.4318252e-05 
10 1:0.1726239 2:3.434903e-05 
10 1:0.17277858 2:3.4379809e-05 
10 1:0.17293326 2:3.4410588e-05 
10 1:0.17308794 2:3.4441367e-05 
10 1:0.17324262 2:3.4472145e-05 
10 1:0.1733973 2:3.4502924e-05 
10 1:0.17355198 2:3.4533703e-05 
10 1:0.17370666 2:3.4564481e-05 
10 1:0.17386134 2:3.459526e-05 
10 1:0.17401603 2:3.4626039e-05 
10 1:0.17417071 2:3.4656817e-05 
10 1:0.17432539 2:3.4687596e-05 
10 1:0.17448007 2:3.4718375e-05 
10 1:0.17463475 2:3.4749154e-05 
10 1:0.17478943 2:3.4779932e-05 
10 1:0.17494411 2:3.4810711e-05 
10 1:0.17509879 2:3.484149e-05 
10 1:0.17525347 2:3.4872268e-05 
10 1:0.17540815 2:3.4903047e-05 
10 1:0.17556283 2:3.4933826e-05 
10 1:0.17571752 2:3.4964604e-05 
10 1:0.1758722 2:3.4995383e-05 
10 1:0.17602688 2:3.5026162e-05 
10 1:0.17618156 2:3.5056941e-05 
10 1:0.17633624 2:3.5087719e-05 
10 1:0.17649092 2:3.5118498e-05 
10 1:0.1766456 2:3.5149277e-05 
10 1:0.17680028 2:3.5180055e-05 
10 1:0.17695496 2:3.5210834e-05 
10 1:0.17710964 2:3.5241613e-05 
10 1:0.17726432 2:3.5272392e-05 
10 1:0.17741901 2:3.530317e-05 
10 1:0.17757369 2:3.5333949e-05 
10 1:0.17772837 2:3.5364728e-05 
10 1:0.17788305 2:3.5395506e-05 
10 1:0.17803773 2:3.5426285e-05 
10 1:0.17819241 2:3.5457064e-05 
10 1:0.17834709 2:3.5487842e-05 
10 1:0.17850177 2:3.5518621e-05 
10 1:0.17865645 2:3.55494e-05 
10 1:0.17881113 2:3.5580179e-05 
10 1:0.17896581 2:3.5610957e-05 
10 1:0.1791205 2:3.5641736e-05 
10 1:0.17927518 2:3.5672515e-05 
10 1:0.17942986 2:3.5703293e-05 
10 1:0.17958454 2:3.5734072e-05 
10 1:0.17973922 2:3.5764851e-05 
10 1:0.1798939 2:3.5795629e-05 
10 1:0.18004858 2:3.5826408e-05 
10 1:0.18020326 2:3.5857187e-05 
10 1:0.18035794 2:3.5887966e-05 
10 1:0.18051262 2:3.5918744e-05 
10 1:0.1806673 2:3.5949523e-05 
10 1:0.18082199 2:3.5980302e-05 
10 1:0.18097667 2:3.601108e-05 
10 1:0.18113135 2:3.6041859e-05 
10 1:0.18128603 2:3.6072638e-05 
10 1:0.18144071 2:3.6103416e-05 
10 1:0.18159539 2:3.6134195e-05 
10 1:0.18175007 2:3.6164974e-05 
10 1:0.18190475 2:3.6195753e-05 
10 1:0.18205943 2:3.6226531e-05 
10 1:0.18221411 2:3.625731e-05 
10 1:0.18236879 2:3.6288089e-05 
10 1:0.18252348 2:3.6318867e-05 
10 1:0.18267816 2:3.6349646e-05 
10 1:0.18283284 2:3.6380425e-05 
10 1:0.18298752 2:3.6411203e-05 
10 1:0.1831422 2:3.6441982e-05 
10 1:0.18329688 2:3.6472761e-05 
10 1:0.18345156 2:3.650354e-05 
10 1:0.18360624 2:3.6534318e-05 
10 1:0.18376092 2:3.6565097e-05 
10 1:0.1839156 2:3.6595876e-05 
10 1:0.18407028 2:3.6626654e-05 
10 1:0.18422497 2:3.6657433e-05 
10 1:0.18437965 2:3.6688212e-05 
10 1:0.18453433 2:3.671899e-05 
10 1:0.18468901 2:3.6749769e-05 
10 1:0.18484369 2:3.6780548e-05 
10 1:0.18499837 2:3.6811327e-05 
10 1:0.18515305 2:3.6842105e-05 
10 1:0.18530773 2:3.6872884e-05 
10 1:0.18546241 2:3.6903663e-05 
10 1:0.18561709 2:3.6934441e-05 
10 1:0.18577178 2:3.696522e-05 
10 1:0.18592646 2:3.6995999e-05 
10 1:0.18608114 2:3.7026777e-05 
10 1:0.18623582 2:3.7057556e-05 
10 1:0.1863905 2:3.7088335e-05 
10 1:0.18654518 2:3.7119114e-05 
10 1:0.18669986 2:3.7149892e-05 
10 1:0.18685454 2:3.7180671e-05 
10 1:0.18700922 2:3.721145e-05 
10 1:0.1871639 2:3.7242228e-05 
10 1:0.18731858 2:3.7273007e-05 
10 1:0.18747327 2:3.7303786e-05 
10 1:0.18762795 2:3.7334564e-05 
10 1:0.18778263 2:3.7365343e-05 
10 1:0.18793731 2:3.7396122e-05 
10 1:0.18809199 2:3.7426901e-05 
10 1:0.18824667 2:3.7457679e-05 
10 1:0.18840135 2:3.7488458e-05 
10 1:0.18855603 2:3.7519237e-05 
10 1:0.18871071 2:3.7550015e-05 
10 1:0.18886539 2:3.7580794e-05 
10 1:0.18902007 2:3.7611573e-05 
10 1:0.18917476 2:3.7642351e-05 
10 1:0.18932944 2:3.767313e-05 
10 1:0.18948412 2:3.7703909e-05 
10 1:0.1896388 2:3.7734688e-05 
10 1:0.18979348 2:3.7765466e-05 
10 1:0.18994816 2:3.7796245e-05 
10 1:0.19010284 2:3.7827024e-05 
10 1:0.19025752 2:3.7857802e-05 
10 1:0.1904122 2:3.7888581e-05 
10 1:0.19056688 2:3.791936e-05 
10 1:0.19072156 2:3.7950139e-05 
10 1:0.19087625 2:3.7980917e-05 
10 1:0.19103093 2:3.8011696e-05 
10 1:0.19118561 2:3.8042475e-05 
10 1:0.19134029 2:3.8073253e-05 
10 1:0.19149497 2:3.8104032e-05 
10 1:0.19164965 2:3.8134811e-05 
10 1:0.19180433 2:3.8165589e-05 
10 1:0.19195901 2:3.8196368e-05 
8.1425081653726838 1:0.19211369 2:3.8227147e-05 
0.29334534796406159 1:0.22521541 2:4.4813789e-05 
10 1:0.22537009 2:4.4844568e-05 
10 1:0.22552477 2:4.4875346e-05 
10 1:0.22567945 2:4.4906125e-05 
10 1:0.22583413 2:4.4936904e-05 
10 1:0.22598881 2:4.4967682e-05 
10 1:0.22614349 2:4.4998461e-05 
10 1:0.22629817 2:4.502924e-05 
-1.9552809373407052 1:0.23666179 2:4.7091413e-05 
-10 1:0.23681648 2:4.7122191e-05 
-10 1:0.23697116 2:4.715297e-05 
-10 1:0.23712584 2:4.7183749e-05 
-10 1:0.23728052 2:4.7214528e-05 
-10 1:0.2374352 2:4.7245306e-05 
-10 1:0.23758988 2:4.7276085e-05 
-10 1:0.23774456 2:4.7306864e-05 
-10 1:0.23789924 2:4.7337642e-05 
-10 1:0.23805392 2:4.7368421e-05 
-10 1:0.2382086 2:4.73992e-05 
-10 1:0.23836328 2:4.7429978e-05 
-10 1:0.23851797 2:4.7460757e-05 
-10 1:0.23867265 2:4.7491536e-05 
-10 1:0.23882733 2:4.7522315e-05 
-10 1:0.23898201 2:4.7553093e-05 
-10 1:0.23913669 2:4.7583872e-05 
-10 1:0.23929137 2:4.7614651e-05 
-10 1:0.23944605 2:4.7645429e-05 
-10 1:0.23960073 2:4.7676208e-05 
-10 1:0.23975541 2:4.7706987e-05 
-10 1:0.23991009 2:4.7737765e-05 
-10 1:0.24006478 2:4.7768544e-05 
-10 1:0.24021946 2:4.7799323e-05 
-10 1:0.24037414 2:4.7830102e-05 
-10 1:0.24052882 2:4.786088e-05 
-10 1:0.2406835 2:4.7891659e-05 
-10 1:0.24083818 2:4.7922438e-05 
-10 1:0.24099286 2:4.7953216e-05 
-10 1:0.24114754 2:4.7983995e-05 
-10 1:0.24130222 2:4.8014774e-05 
-10 1:0.2414569 2:4.8045552e-05 
-10 1:0.24161158 2:4.8076331e-05 
-10 1:0.24176627 2:4.810711e-05 
-10 1:0.24192095 2:4.8137889e-05 
-10 1:0.24207563 2:4.8168667e-05 
-10 1:0.24223031 2:4.8199446e-05 
-10 1:0.24238499 2:4.8230225e-05 
-10 1:0.24253967 2:4.8261003e-05 
-10 1:0.24269435 2:4.8291782e-05 
-10 1:0.24284903 2:4.8322561e-05 
-10 1:0.24300371 2:4.8353339e-05 
-10 1:0.24315839 2:4.8384118e-05 
-10 1:0.24331307 2:4.8414897e-05 
-10 1:0.24346776 2:4.8445676e-05 
-10 1:0.24362244 2:4.8476454e-05 
-10 1:0.24377712 2:4.8507233e-05 
-10 1:0.2439318 2:4.8538012e-05 
-10 1:0.24408648 2:4.856879e-05 
-10 1:0.24424116 2:4.8599569e-05 
-10 1:0.24439584 2:4.8630348e-05 
-10 1:0.24455052 2:4.8661127e-05 
-10 1:0.2447052 2:4.8691905e-05 
-10 1:0.24485988 2:4.8722684e-05 
-10 1:0.24501456 2:4.8753463e-05 
-10 1:0.24516925 2:4.8784241e-05 
-10 1:0.24532393 2:4.881502e-05 
-10 1:0.24547861 2:4.8845799e-05 
-10 1:0.24563329 2:4.8876577e-05 
-10 1:0.24578797 2:4.8907356e-05 
-10 1:0.24594265 2:4.8938135e-05 
-10 1:0.24609733 2:4.8968914e-05 
-10 1:0.24625201 2:4.8999692e-05 
-10 1:0.24640669 2:4.9030471e-05 
-10 1:0.24656137 2:4.906125e-05 
-10 1:0.24671605 2:4.9092028e-05 
-10 1:0.24687074 2:4.9122807e-05 
-10 1:0.24702542 2:4.9153586e-05 
-10 1:0.2471801 2:4.9184364e-05 
-10 1:0.24733478 2:4.9215143e-05 
-10 1:0.24748946 2:4.9245922e-05 
-10 1:0.24764414 2:4.9276701e-05 
-10 1:0.24779882 2:4.9307479e-05 
-10 1:0.2479535 2:4.9338258e-05 
-10 1:0.24810818 2:4.9369037e-05 
-10 1:0.24826286 2:4.9399815e-05 
-10 1:0.24841754 2:4.9430594e-05 
-10 1:0.24857223 2:4.9461373e-05 
-10 1:0.24872691 2:4.9492151e-05 
-10 1:0.24888159 2:4.952293e-05 
-10 1:0.24903627 2:4.9553709e-05 
-10 1:0.24919095 2:4.9584488e-05 
-10 1:0.24934563 2:4.9615266e-05 
-10 1:0.24950031 2:4.9646045e-05 
-10 1:0.24965499 2:4.9676824e-05 
-10 1:0.24980967 2:4.9707602e-05 
-10 1:0.24996435 2:4.9738381e-05 
-10 1:0.25011903 2:4.976916e-05 
-10 1:0.25027372 2:4.9799938e-05 
-10 1:0.2504284 2:4.9830717e-05 
-10 1:0.25058308 2:4.9861496e-05 
-10 1:0.25073776 2:4.9892275e-05 
-10 1:0.25089244 2:4.9923053e-05 
-10 1:0.25104712 2:4.9953832e-05 
-10 1:0.2512018 2:4.9984611e-05 
-10 1:0.25135648 2:5.0015389e-05 
-10 1:0.25151116 2:5.0046168e-05 
-10 1:0.25166584 2:5.0076947e-05 
-10 1:0.25182052 2:5.0107725e-05 
-10 1:0.25197521 2:5.0138504e-05 
-10 1:0.25212989 2:5.0169283e-05 
-10 1:0.25228457 2:5.0200062e-05 
-10 1:0.25243925 2:5.023084e-05 
-10 1:0.25259393 2:5.0261619e-05 
-10 1:0.25274861 2:5.0292398e-05 
-10 1:0.25290329 2:5.0323176e-05 
-10 1:0.25305797 2:5.0353955e-05 
-10 1:0.25321265 2:5.0384734e-05 
-10 1:0.25336733 2:5.0415512e-05 
-10 1:0.25352201 2:5.0446291e-05 
-10 1:0.2536767 2:5.047707e-05 
-10 1:0.25383138 2:5.0507849e-05 
-10 1:0.25398606 2:5.0538627e-05 
-10 1:0.25414074 2:5.0569406e-05 
-10 1:0.25429542 2:5.0600185e-05 
-10 1:0.2544501 2:5.0630963e-05 
-10 1:0.25460478 2:5.0661742e-05 
-10 1:0.25475946 2:5.0692521e-05 
-10 1:0.25491414 2:5.0723299e-05 
-10 1:0.25506882 2:5.0754078e-05 
-10 1:0.2552235 2:5.0784857e-05 
-10 1:0.25537819 2:5.0815636e-05 
-10 1:0.25553287 2:5.0846414e-05 
-10 1:0.25568755 2:5.0877193e-05 
-10 1:0.25584223 2:5.0907972e-05 
-10 1:0.25599691 2:5.093875e-05 
-10 1:0.25615159 2:5.0969529e-05 
-10 1:0.25630627 2:5.1000308e-05 
-10 1:0.25646095 2:5.1031086e-05 
-10 1:0.25661563 2:5.1061865e-05 
-10 1:0.25677031 2:5.1092644e-05 
-10 1:0.25692499 2:5.1123423e-05 
-10 1:0.25707968 2:5.1154201e-05 
-10 1:0.25723436 2:5.118498e-05 
-10 1:0.25738904 2:5.1215759e-05 
-10 1:0.25754372 2:5.1246537e-05 
-10 1:0.2576984 2:5.1277316e-05 
-10 1:0.25785308 2:5.1308095e-05 
-10 1:0.25800776 2:5.1338873e-05 
-10 1:0.25816244 2:5.1369652e-05 
-10 1:0.25831712 2:5.1400431e-05 
-10 1:0.2584718 2:5.143121e-05 
-10 1:0.25862648 2:5.1461988e-05 
-10 1:0.25878117 2:5.1492767e-05 
-10 1:0.25893585 2:5.1523546e-05 
-10 1:0.25909053 2:5.1554324e-05 
-10 1:0.25924521 2:5.1585103e-05 
-10 1:0.25939989 2:5.1615882e-05 
-10 1:0.25955457 2:5.1646661e-05 
-10 1:0.25970925 2:5.1677439e-05 
-10 1:0.25986393 2:5.1708218e-05 
-10 1:0.26001861 2:5.1738997e-05 
-10 1:0.26017329 2:5.1769775e-05 
-10 1:0.26032797 2:5.1800554e-05 
-10 1:0.26048266 2:5.1831333e-05 
-10 1:0.26063734 2:5.1862111e-05 
-10 1:0.26079202 2:5.189289e-05 
-10 1:0.2609467 2:5.1923669e-05 
-10 1:0.26110138 2:5.1954448e-05 
-10 1:0.26125606 2:5.1985226e-05 
-10 1:0.26141074 2:5.2016005e-05 
-10 1:0.26156542 2:5.2046784e-05 
-10 1:0.2617201 2:5.2077562e-05 
-10 1:0.26187478 2:5.2108341e-05 
-10 1:0.26202946 2:5.213912e-05 
-10 1:0.26218415 2:5.2169898e-05 
-10 1:0.26233883 2:5.2200677e-05 
-10 1:0.26249351 2:5.2231456e-05 
-10 1:0.26264819 2:5.2262235e-05 
-10 1:0.26280287 2:5.2293013e-05 
-10 1:0.26295755 2:5.2323792e-05 
-10 1:0.26311223 2:5.2354571e-05 
-10 1:0.26326691 2:5.2385349e-05 
-10 1:0.26342159 2:5.2416128e-05 
-10 1:0.26357627 2:5.2446907e-05 
-10 1:0.26373095 2:5.2477685e-05 
-10 1:0.26388564 2:5.2508464e-05 
-10 1:0.26404032 2:5.2539243e-05 
-10 1:0.264195 2:5.2570022e-05 
-10 1:0.26434968 2:5.26008e-05 
-10 1:0.26450436 2:5.2631579e-05 
-10 1:0.26465904 2:5.2662358e-05 
-10 1:0.26481372 2:5.2693136e-05 
-10 1:0.2649684 2:5.2723915e-05 
-10 1:0.26512308 2:5.2754694e-05 
-10 1:0.26527776 2:5.2785472e-05 
-10 1:0.26543244 2:5.2816251e-05 
-10 1:0.26558713 2:5.284703e-05 
-10 1:0.26574181 2:5.2877809e-05 
-10 1:0.26589649 2:5.2908587e-05 
-10 1:0.26605117 2:5.2939366e-05 
-10 1:0.26620585 2:5.2970145e-05 
-10 1:0.26636053 2:5.3000923e-05 
-10 1:0.26651521 2:5.3031702e-05 
-10 1:0.26666989 2:5.3062481e-05 
-10 1:0.26682457 2:5.3093259e-05 
-10 1:0.26697925 2:5.3124038e-05 
-10 1:0.26713393 2:5.3154817e-05 
-10 1:0.26728862 2:5.3185596e-05 
-10 1:0.2674433 2:5.3216374e-05 
-10 1:0.26759798 2:5.3247153e-05 
-10 1:0.26775266 2:5.3277932e-05 
-10 1:0.26790734 2:5.330871e-05 
-10 1:0.26806202 2:5.3339489e-05 
-10 1:0.2682167 2:5.3370268e-05 
-10 1:0.26837138 2:5.3401046e-05 
-10 1:0.26852606 2:5.3431825e-05 
-10 1:0.26868074 2:5.3462604e-05 
-10 1:0.26883542 2:5.3493383e-05 
-10 1:0.26899011 2:5.3524161e-05 
-10 1:0.26914479 2:5.355494e-05 
-10 1:0.26929947 2:5.3585719e-05 
-10 1:0.26945415 2:5.3616497e-05 
-10 1:0.26960883 2:5.3647276e-05 
-10 1:0.26976351 2:5.3678055e-05 
-0.23757748915184249 1:0.26991819 2:5.3708833e-05 
0.71313142785802597 1:0.27672415 2:5.5063096e-05 
10 1:0.27687883 2:5.5093875e-05 
10 1:0.27703351 2:5.5124654e-05 
10 1:0.27718819 2:5.5155432e-05 
10 1:0.27734287 2:5.5186211e-05 
10 1:0.27749756 2:5.521699e-05 
10 1:0.27765224 2:5.5247769e-05 
10 1:0.27780692 2:5.5278547e-05 
10 1:0.2779616 2:5.5309326e-05 
10 1:0.27811628 2:5.5340105e-05 
10 1:0.27827096 2:5.5370883e-05 
10 1:0.27842564 2:5.5401662e-05 
10 1:0.27858032 2:5.5432441e-05 
10 1:0.278735 2:5.5463219e-05 
10 1:0.27888968 2:5.5493998e-05 
10 1:0.27904436 2:5.5524777e-05 
10 1:0.27919905 2:5.5555556e-05 
10 1:0.27935373 2:5.5586334e-05 
10 1:0.27950841 2:5.5617113e-05 
10 1:0.27966309 2:5.5647892e-05 
10 1:0.27981777 2:5.567867e-05 
10 1:0.27997245 2:5.5709449e-05 
10 1:0.28012713 2:5.5740228e-05 
10 1:0.28028181 2:5.5771006e-05 
10 1:0.28043649 2:5.5801785e-05 
10 1:0.28059117 2:5.5832564e-05 
10 1:0.28074585 2:5.5863343e-05 
10 1:0.28090054 2:5.5894121e-05 
10 1:0.28105522 2:5.59249e-05 
10 1:0.2812099 2:5.5955679e-05 
10 1:0.28136458 2:5.5986457e-05 
10 1:0.28151926 2:5.6017236e-05 
10 1:0.28167394 2:5.6048015e-05 
10 1:0.28182862 2:5.6078793e-05 
10 1:0.2819833 2:5.6109572e-05 
10 1:0.28213798 2:5.6140351e-05 
10 1:0.28229266 2:5.617113e-05 
10 1:0.28244734 2:5.6201908e-05 
10 1:0.28260203 2:5.6232687e-05 
10 1:0.28275671 2:5.6263466e-05 
10 1:0.28291139 2:5.6294244e-05 
10 1:0.28306607 2:5.6325023e-05 
10 1:0.28322075 2:5.6355802e-05 
10 1:0.28337543 2:5.638658e-05 
10 1:0.28353011 2:5.6417359e-05 
10 1:0.28368479 2:5.6448138e-05 
10 1:0.28383947 2:5.6478917e-05 
10 1:0.28399415 2:5.6509695e-05 
10 1:0.28414883 2:5.6540474e-05 
10 1:0.28430352 2:5.6571253e-05 
10 1:0.2844582 2:5.6602031e-05 
10 1:0.28461288 2:5.663281e-05 
10 1:0.28476756 2:5.6663589e-05 
10 1:0.28492224 2:5.6694367e-05 
10 1:0.28507692 2:5.6725146e-05 
10 1:0.2852316 2:5.6755925e-05 
10 1:0.28538628 2:5.6786704e-05 
10 1:0.28554096 2:5.6817482e-05 
10 1:0.28569564 2:5.6848261e-05 
10 1:0.28585032 2:5.687904e-05 
10 1:0.28600501 2:5.6909818e-05 
10 1:0.28615969 2:5.6940597e-05 
10 1:0.28631437 2:5.6971376e-05 
10 1:0.28646905 2:5.7002155e-05 
10 1:0.28662373 2:5.7032933e-05 
10 1:0.28677841 2:5.7063712e-05 
10 1:0.28693309 2:5.7094491e-05 
10 1:0.28708777 2:5.7125269e-05 
10 1:0.28724245 2:5.7156048e-05 
10 1:0.28739713 2:5.7186827e-05 
10 1:0.28755181 2:5.7217605e-05 
10 1:0.2877065 2:5.7248384e-05 
10 1:0.28786118 2:5.7279163e-05 
10 1:0.28801586 2:5.7309942e-05 
10 1:0.28817054 2:5.734072e-05 
10 1:0.28832522 2:5.7371499e-05 
10 1:0.2884799 2:5.7402278e-05 
10 1:0.28863458 2:5.7433056e-05 
10 1:0.28878926 2:5.7463835e-05 
10 1:0.28894394 2:5.7494614e-05 
10 1:0.28909862 2:5.7525392e-05 
10 1:0.2892533 2:5.7556171e-05 
10 1:0.28940799 2:5.758695e-05 
10 1:0.28956267 2:5.7617729e-05 
10 1:0.28971735 2:5.7648507e-05 
10 1:0.28987203 2:5.7679286e-05 
10 1:0.29002671 2:5.7710065e-05 
10 1:0.29018139 2:5.7740843e-05 
10 1:0.29033607 2:5.7771622e-05 
10 1:0.29049075 2:5.7802401e-05 
10 1:0.29064543 2:5.7833179e-05 
10 1:0.29080011 2:5.7863958e-05 
10 1:0.29095479 2:5.7894737e-05 
10 1:0.29110948 2:5.7925516e-05 
10 1:0.29126416 2:5.7956294e-05 
10 1:0.29141884 2:5.7987073e-05 
10 1:0.29157352 2:5.8017852e-05 
10 1:0.2917282 2:5.804863e-05 
10 1:0.29188288 2:5.8079409e-05 
10 1:0.29203756 2:5.8110188e-05 
10 1:0.29219224 2:5.8140966e-05 
10 1:0.29234692 2:5.8171745e-05 
10 1:0.2925016 2:5.8202524e-05 
10 1:0.29265629 2:5.8233303e-05 
10 1:0.29281097 2:5.8264081e-05 
10 1:0.29296565 2:5.829486e-05 
10 1:0.29312033 2:5.8325639e-05 
10 1:0.29327501 2:5.8356417e-05 
10 1:0.29342969 2:5.8387196e-05 
10 1:0.29358437 2:5.8417975e-05 
10 1:0.29373905 2:5.8448753e-05 
10 1:0.29389373 2:5.8479532e-05 
10 1:0.29404841 2:5.8510311e-05 
10 1:0.29420309 2:5.854109e-05 
10 1:0.29435778 2:5.8571868e-05 
10 1:0.29451246 2:5.8602647e-05 
10 1:0.29466714 2:5.8633426e-05 
10 1:0.29482182 2:5.8664204e-05 
10 1:0.2949765 2:5.8694983e-05 
10 1:0.29513118 2:5.8725762e-05 
10 1:0.29528586 2:5.875654e-05 
10 1:0.29544054 2:5.8787319e-05 
10 1:0.29559522 2:5.8818098e-05 
10 1:0.2957499 2:5.8848877e-05 
10 1:0.29590458 2:5.8879655e-05 
10 1:0.29605927 2:5.8910434e-05 
10 1:0.29621395 2:5.8941213e-05 
10 1:0.29636863 2:5.8971991e-05 
10 1:0.29652331 2:5.900277e-05 
10 1:0.29667799 2:5.9033549e-05 
10 1:0.29683267 2:5.9064327e-05 
10 1:0.29698735 2:5.9095106e-05 
10 1:0.29714203 2:5.9125885e-05 
10 1:0.29729671 2:5.9156664e-05 
10 1:0.29745139 2:5.9187442e-05 
10 1:0.29760607 2:5.9218221e-05 
10 1:0.29776076 2:5.9249e-05 
10 1:0.29791544 2:5.9279778e-05 
10 1:0.29807012 2:5.9310557e-05 
10 1:0.2982248 2:5.9341336e-05 
10 1:0.29837948 2:5.9372114e-05 
10 1:0.29853416 2:5.9402893e-05 
10 1:0.29868884 2:5.9433672e-05 
10 1:0.29884352 2:5.9464451e-05 
10 1:0.2989982 2:5.9495229e-05 
10 1:0.29915288 2:5.9526008e-05 
10 1:0.29930756 2:5.9556787e-05 
10 1:0.29946225 2:5.9587565e-05 
10 1:0.29961693 2:5.9618344e-05 
10 1:0.29977161 2:5.9649123e-05 
10 1:0.29992629 2:5.9679902e-05 
10 1:0.30008097 2:5.971068e-05 
10 1:0.30023565 2:5.9741459e-05 
10 1:0.30039033 2:5.9772238e-05 
10 1:0.30054501 2:5.9803016e-05 
10 1:0.30069969 2:5.9833795e-05 
10 1:0.30085437 2:5.9864574e-05 
10 1:0.30100905 2:5.9895352e-05 
10 1:0.30116374 2:5.9926131e-05 
10 1:0.30131842 2:5.995691e-05 
10 1:0.3014731 2:5.9987689e-05 
10 1:0.30162778 2:6.0018467e-05 
10 1:0.30178246 2:6.0049246e-05 
10 1:0.30193714 2:6.0080025e-05 
10 1:0.30209182 2:6.0110803e-05 
10 1:0.3022465 2:6.0141582e-05 
10 1:0.30240118 2:6.0172361e-05 
10 1:0.30255586 2:6.0203139e-05 
10 1:0.30271054 2:6.0233918e-05 
10 1:0.30286523 2:6.0264697e-05 
10 1:0.30301991 2:6.0295476e-05 
10 1:0.30317459 2:6.0326254e-05 
10 1:0.30332927 2:6.0357033e-05 
9.9094524122863668 1:0.30348395 2:6.0387812e-05 
-9.0631567135179552 1:0.31957076 2:6.3588797e-05 
-10 1:0.31972544 2:6.3619575e-05 
-10 1:0.31988013 2:6.3650354e-05 
-10 1:0.32003481 2:6.3681133e-05 
-10 1:0.32018949 2:6.3711911e-05 
-10 1:0.32034417 2:6.374269e-05 
-10 1:0.32049885 2:6.3773469e-05 
-10 1:0.32065353 2:6.3804247e-05 
-10 1:0.32080821 2:6.3835026e-05 
-10 1:0.32096289 2:6.3865805e-05 
-10 1:0.32111757 2:6.3896584e-05 
-10 1:0.32127225 2:6.3927362e-05 
-10 1:0.32142693 2:6.3958141e-05 
-10 1:0.32158162 2:6.398892e-05 
-10 1:0.3217363 2:6.4019698e-05 
-10 1:0.32189098 2:6.4050477e-05 
-10 1:0.32204566 2:6.4081256e-05 
-10 1:0.32220034 2:6.4112034e-05 
-10 1:0.32235502 2:6.4142813e-05 
-10 1:0.3225097 2:6.4173592e-05 
-10 1:0.32266438 2:6.4204371e-05 
-10 1:0.32281906 2:6.4235149e-05 
-10 1:0.32297374 2:6.4265928e-05 
-10 1:0.32312842 2:6.4296707e-05 
-10 1:0.32328311 2:6.4327485e-05 
-10 1:0.32343779 2:6.4358264e-05 
-10 1:0.32359247 2:6.4389043e-05 
-10 1:0.32374715 2:6.4419821e-05 
-10 1:0.32390183 2:6.44506e-05 
-10 1:0.32405651 2:6.4481379e-05 
-10 1:0.32421119 2:6.4512158e-05 
-10 1:0.32436587 2:6.4542936e-05 
-10 1:0.32452055 2:6.4573715e-05 
-10 1:0.32467523 2:6.4604494e-05 
-10 1:0.32482991 2:6.4635272e-05 
-10 1:0.3249846 2:6.4666051e-05 
-10 1:0.32513928 2:6.469683e-05 
-10 1:0.32529396 2:6.4727608e-05 
-10 1:0.32544864 2:6.4758387e-05 
-10 1:0.32560332 2:6.4789166e-05 
-10 1:0.325758 2:6.4819945e-05 
-10 1:0.32591268 2:6.4850723e-05 
-10 1:0.32606736 2:6.4881502e-05 
-10 1:0.32622204 2:6.4912281e-05 
-10 1:0.32637672 2:6.4943059e-05 
-10 1:0.3265314 2:6.4973838e-05 
-10 1:0.32668609 2:6.5004617e-05 
-10 1:0.32684077 2:6.5035396e-05 
-10 1:0.32699545 2:6.5066174e-05 
-10 1:0.32715013 2:6.5096953e-05 
-10 1:0.32730481 2:6.5127732e-05 
-10 1:0.32745949 2:6.515851e-05 
-10 1:0.32761417 2:6.5189289e-05 
-10 1:0.32776885 2:6.5220068e-05 
-10 1:0.32792353 2:6.5250846e-05 
-10 1:0.32807821 2:6.5281625e-05 
-10 1:0.32823289 2:6.5312404e-05 
-10 1:0.32838758 2:6.5343183e-05 
-10 1:0.32854226 2:6.5373961e-05 
-10 1:0.32869694 2:6.540474e-05 
-10 1:0.32885162 2:6.5435519e-05 
-10 1:0.3290063 2:6.5466297e-05 
-10 1:0.32916098 2:6.5497076e-05 
-10 1:0.32931566 2:6.5527855e-05 
-10 1:0.32947034 2:6.5558633e-05 
-10 1:0.32962502 2:6.5589412e-05 
-10 1:0.3297797 2:6.5620191e-05 
-10 1:0.32993438 2:6.565097e-05 
-10 1:0.33008907 2:6.5681748e-05 
-10 1:0.33024375 2:6.5712527e-05 
-10 1:0.33039843 2:6.5743306e-05 
-10 1:0.33055311 2:6.5774084e-05 
-10 1:0.33070779 2:6.5804863e-05 
-10 1:0.33086247 2:6.5835642e-05 
-10 1:0.33101715 2:6.586642e-05 
-10 1:0.33117183 2:6.5897199e-05 
-10 1:0.33132651 2:6.5927978e-05 
-10 1:0.33148119 2:6.5958757e-05 
-10 1:0.33163587 2:6.5989535e-05 
-10 1:0.33179056 2:6.6020314e-05 
-10 1:0.33194524 2:6.6051093e-05 
-10 1:0.33209992 2:6.6081871e-05 
-10 1:0.3322546 2:6.611265e-05 
-10 1:0.33240928 2:6.6143429e-05 
-10 1:0.33256396 2:6.6174207e-05 
-10 1:0.33271864 2:6.6204986e-05 
-10 1:0.33287332 2:6.6235765e-05 
-10 1:0.333028 2:6.6266544e-05 
-10 1:0.33318268 2:6.6297322e-05 
-10 1:0.33333736 2:6.6328101e-05 
-10 1:0.33349205 2:6.635888e-05 
-10 1:0.33364673 2:6.6389658e-05 
-10 1:0.33380141 2:6.6420437e-05 
-10 1:0.33395609 2:6.6451216e-05 
-10 1:0.33411077 2:6.6481994e-05 
-10 1:0.33426545 2:6.6512773e-05 
-10 1:0.33442013 2:6.6543552e-05 
-10 1:0.33457481 2:6.6574331e-05 
-10 1:0.33472949 2:6.6605109e-05 
-10 1:0.33488417 2:6.6635888e-05 
-10 1:0.33503885 2:6.6666667e-05 
-10 1:0.33519354 2:6.6697445e-05 
-10 1:0.33534822 2:6.6728224e-05 
-10 1:0.3355029 2:6.6759003e-05 
-10 1:0.33565758 2:6.6789781e-05 
-10 1:0.33581226 2:6.682056e-05 
-10 1:0.33596694 2:6.6851339e-05 
-10 1:0.33612162 2:6.6882118e-05 
-10 1:0.3362763 2:6.6912896e-05 
-10 1:0.33643098 2:6.6943675e-05 
-10 1:0.33658566 2:6.6974454e-05 
-10 1:0.33674034 2:6.7005232e-05 
-10 1:0.33689503 2:6.7036011e-05 
-10 1:0.33704971 2:6.706679e-05 
-10 1:0.33720439 2:6.7097568e-05 
-10 1:0.33735907 2:6.7128347e-05 
-10 1:0.33751375 2:6.7159126e-05 
-10 1:0.33766843 2:6.7189905e-05 
-10 1:0.33782311 2:6.7220683e-05 
-10 1:0.33797779 2:6.7251462e-05 
-10 1:0.33813247 2:6.7282241e-05 
-10 1:0.33828715 2:6.7313019e-05 
-10 1:0.33844183 2:6.7343798e-05 
-10 1:0.33859652 2:6.7374577e-05 
-10 1:0.3387512 2:6.7405355e-05 
-10 1:0.33890588 2:6.7436134e-05 
-10 1:0.33906056 2:6.7466913e-05 
-10 1:0.33921524 2:6.7497692e-05 
-10 1:0.33936992 2:6.752847e-05 
-10 1:0.3395246 2:6.7559249e-05 
-10 1:0.33967928 2:6.7590028e-05 
-10 1:0.33983396 2:6.7620806e-05 
-10 1:0.33998864 2:6.7651585e-05 
-10 1:0.34014332 2:6.7682364e-05 
-10 1:0.34029801 2:6.7713143e-05 
-10 1:0.34045269 2:6.7743921e-05 
-10 1:0.34060737 2:6.77747e-05 
-10 1:0.34076205 2:6.7805479e-05 
-10 1:0.34091673 2:6.7836257e-05 
-10 1:0.34107141 2:6.7867036e-05 
-10 1:0.34122609 2:6.7897815e-05 
-10 1:0.34138077 2:6.7928593e-05 
-10 1:0.34153545 2:6.7959372e-05 
-10 1:0.34169013 2:6.7990151e-05 
-10 1:0.34184481 2:6.802093e-05 
-10 1:0.3419995 2:6.8051708e-05 
-10 1:0.34215418 2:6.8082487e-05 
-10 1:0.34230886 2:6.8113266e-05 
-10 1:0.34246354 2:6.8144044e-05 
-10 1:0.34261822 2:6.8174823e-05 
-10 1:0.3427729 2:6.8205602e-05 
-10 1:0.34292758 2:6.823638e-05 
-10 1:0.34308226 2:6.8267159e-05 
-10 1:0.34323694 2:6.8297938e-05 
-10 1:0.34339162 2:6.8328717e-05 
-10 1:0.3435463 2:6.8359495e-05 
-10 1:0.34370099 2:6.8390274e-05 
-10 1:0.34385567 2:6.8421053e-05 
-10 1:0.34401035 2:6.8451831e-05 
-10 1:0.34416503 2:6.848261e-05 
-10 1:0.34431971 2:6.8513389e-05 
-10 1:0.34447439 2:6.8544167e-05 
-10 1:0.34462907 2:6.8574946e-05 
-10 1:0.34478375 2:6.8605725e-05 
-10 1:0.34493843 2:6.8636504e-05 
-10 1:0.34509311 2:6.8667282e-05 
-10 1:0.3452478 2:6.8698061e-05 
-10 1:0.34540248 2:6.872884e-05 
-10 1:0.34555716 2:6.8759618e-05 
-10 1:0.34571184 2:6.8790397e-05 
-10 1:0.34586652 2:6.8821176e-05 
-10 1:0.3460212 2:6.8851954e-05 
-10 1:0.34617588 2:6.8882733e-05 
-10 1:0.34633056 2:6.8913512e-05 
-10 1:0.34648524 2:6.8944291e-05 
-10 1:0.34663992 2:6.8975069e-05 
-10 1:0.3467946 2:6.9005848e-05 
-10 1:0.34694929 2:6.9036627e-05 
-10 1:0.34710397 2:6.9067405e-05 
-10 1:0.34725865 2:6.9098184e-05 
-10 1:0.34741333 2:6.9128963e-05 
-10 1:0.34756801 2:6.9159741e-05 
-10 1:0.34772269 2:6.919052e-05 
-10 1:0.34787737 2:6.9221299e-05 
-10 1:0.34803205 2:6.9252078e-05 
-10 1:0.34818673 2:6.9282856e-05 
-10 1:0.34834141 2:6.9313635e-05 
-10 1:0.34849609 2:6.9344414e-05 
-10 1:0.34865078 2:6.9375192e-05 
-10 1:0.34880546 2:6.9405971e-05 
-10 1:0.34896014 2:6.943675e-05 
-10 1:0.34911482 2:6.9467528e-05 
-10 1:0.3492695 2:6.9498307e-05 
-10 1:0.34942418 2:6.9529086e-05 
-10 1:0.34957886 2:6.9559865e-05 
-10 1:0.34973354 2:6.9590643e-05 
-10 1:0.34988822 2:6.9621422e-05 
-10 1:0.3500429 2:6.9652201e-05 
-10 1:0.35019758 2:6.9682979e-05 
-10 1:0.35035227 2:6.9713758e-05 
-10 1:0.35050695 2:6.9744537e-05 
-10 1:0.35066163 2:6.9775315e-05 
-10 1:0.35081631 2:6.9806094e-05 
-10 1:0.35097099 2:6.9836873e-05 
-10 1:0.35112567 2:6.9867652e-05 
-10 1:0.35128035 2:6.989843e-05 
-10 1:0.35143503 2:6.9929209e-05 
-10 1:0.35158971 2:6.9959988e-05 
-10 1:0.35174439 2:6.9990766e-05 
-10 1:0.35189907 2:7.0021545e-05 
-10 1:0.35205376 2:7.0052324e-05 
-10 1:0.35220844 2:7.0083102e-05 
-10 1:0.35236312 2:7.0113881e-05 
-10 1:0.3525178 2:7.014466e-05 
-10 1:0.35267248 2:7.0175439e-05 
-10 1:0.35282716 2:7.0206217e-05 
-10 1:0.35298184 2:7.0236996e-05 
-10 1:0.35313652 2:7.0267775e-05 
-10 1:0.3532912 2:7.0298553e-05 
-10 1:0.35344588 2:7.0329332e-05 
4.7205602289587745 1:0.36860461 2:7.3345645e-05 
10 1:0.36875929 2:7.3376424e-05 
10 1:0.36891397 2:7.3407202e-05 
10 1:0.36906866 2:7.3437981e-05 
10 1:0.36922334 2:7.346876e-05 
10 1:0.36937802 2:7.3499538e-05 
10 1:0.3695327 2:7.3530317e-05 
10 1:0.36968738 2:7.3561096e-05 
10 1:0.36984206 2:7.3591874e-05 
10 1:0.36999674 2:7.3622653e-05 
10 1:0.37015142 2:7.3653432e-05 
10 1:0.3703061 2:7.3684211e-05 
10 1:0.37046078 2:7.3714989e-05 
10 1:0.37061546 2:7.3745768e-05 
10 1:0.37077015 2:7.3776547e-05 
10 1:0.37092483 2:7.3807325e-05 
10 1:0.37107951 2:7.3838104e-05 
10 1:0.37123419 2:7.3868883e-05 
10 1:0.37138887 2:7.3899661e-05 
10 1:0.37154355 2:7.393044e-05 
10 1:0.37169823 2:7.3961219e-05 
10 1:0.37185291 2:7.3991998e-05 
10 1:0.37200759 2:7.4022776e-05 
10 1:0.37216227 2:7.4053555e-05 
10 1:0.37231695 2:7.4084334e-05 
10 1:0.37247164 2:7.4115112e-05 
10 1:0.37262632 2:7.4145891e-05 
10 1:0.372781 2:7.417667e-05 
10 1:0.37293568 2:7.4207448e-05 
10 1:0.37309036 2:7.4238227e-05 
10 1:0.37324504 2:7.4269006e-05 
10 1:0.37339972 2:7.4299785e-05 
10 1:0.3735544 2:7.4330563e-05 
10 1:0.37370908 2:7.4361342e-05 
10 1:0.37386376 2:7.4392121e-05 
10 1:0.37401844 2:7.4422899e-05 
10 1:0.37417313 2:7.4453678e-05 
10 1:0.37432781 2:7.4484457e-05 
10 1:0.37448249 2:7.4515235e-05 
10 1:0.37463717 2:7.4546014e-05 
10 1:0.37479185 2:7.4576793e-05 
10 1:0.37494653 2:7.4607572e-05 
10 1:0.37510121 2:7.463835e-05 
10 1:0.37525589 2:7.4669129e-05 
10 1:0.37541057 2:7.4699908e-05 
10 1:0.37556525 2:7.4730686e-05 
10 1:0.37571993 2:7.4761465e-05 
10 1:0.37587462 2:7.4792244e-05 
10 1:0.3760293 2:7.4823022e-05 
10 1:0.37618398 2:7.4853801e-05 
10 1:0.37633866 2:7.488458e-05 
10 1:0.37649334 2:7.4915359e-05 
10 1:0.37664802 2:7.4946137e-05 
10 1:0.3768027 2:7.4976916e-05 
10 1:0.37695738 2:7.5007695e-05 
10 1:0.37711206 2:7.5038473e-05 
10 1:0.37726674 2:7.5069252e-05 
10 1:0.37742142 2:7.5100031e-05 
10 1:0.37757611 2:7.5130809e-05 
10 1:0.37773079 2:7.5161588e-05 
10 1:0.37788547 2:7.5192367e-05 
10 1:0.37804015 2:7.5223146e-05 
10 1:0.37819483 2:7.5253924e-05 
10 1:0.37834951 2:7.5284703e-05 
10 1:0.37850419 2:7.5315482e-05 
10 1:0.37865887 2:7.534626e-05 
10 1:0.37881355 2:7.5377039e-05 
10 1:0.37896823 2:7.5407818e-05 
10 1:0.37912291 2:7.5438596e-05 
10 1:0.3792776 2:7.5469375e-05 
10 1:0.37943228 2:7.5500154e-05 
10 1:0.37958696 2:7.5530933e-05 
10 1:0.37974164 2:7.5561711e-05 
10 1:0.37989632 2:7.559249e-05 
10 1:0.380051 2:7.5623269e-05 
10 1:0.38020568 2:7.5654047e-05 
10 1:0.38036036 2:7.5684826e-05 
10 1:0.38051504 2:7.5715605e-05 
10 1:0.38066972 2:7.5746384e-05 
10 1:0.3808244 2:7.5777162e-05 
10 1:0.38097909 2:7.5807941e-05 
10 1:0.38113377 2:7.583872e-05 
10 1:0.38128845 2:7.5869498e-05 
10 1:0.38144313 2:7.5900277e-05 
10 1:0.38159781 2:7.5931056e-05 
10 1:0.38175249 2:7.5961834e-05 
10 1:0.38190717 2:7.5992613e-05 
10 1:0.38206185 2:7.6023392e-05 
10 1:0.38221653 2:7.6054171e-05 
10 1:0.38237121 2:7.6084949e-05 
10 1:0.38252589 2:7.6115728e-05 
10 1:0.38268058 2:7.6146507e-05 
10 1:0.38283526 2:7.6177285e-05 
10 1:0.38298994 2:7.6208064e-05 
10 1:0.38314462 2:7.6238843e-05 
10 1:0.3832993 2:7.6269621e-05 
10 1:0.38345398 2:7.63004e-05 
10 1:0.38360866 2:7.6331179e-05 
10 1:0.38376334 2:7.6361958e-05 
10 1:0.38391802 2:7.6392736e-05 
10 1:0.3840727 2:7.6423515e-05 
10 1:0.38422738 2:7.6454294e-05 
10 1:0.38438207 2:7.6485072e-05 
10 1:0.38453675 2:7.6515851e-05 
10 1:0.38469143 2:7.654663e-05 
10 1:0.38484611 2:7.6577408e-05 
10 1:0.38500079 2:7.6608187e-05 
10 1:0.38515547 2:7.6638966e-05 
10 1:0.38531015 2:7.6669745e-05 
10 1:0.38546483 2:7.6700523e-05 
10 1:0.38561951 2:7.6731302e-05 
10 1:0.38577419 2:7.6762081e-05 
10 1:0.38592887 2:7.6792859e-05 
10 1:0.38608356 2:7.6823638e-05 
10 1:0.38623824 2:7.6854417e-05 
10 1:0.38639292 2:7.6885195e-05 
10 1:0.3865476 2:7.6915974e-05 
10 1:0.38670228 2:7.6946753e-05 
10 1:0.38685696 2:7.6977532e-05 
10 1:0.38701164 2:7.700831e-05 
10 1:0.38716632 2:7.7039089e-05 
10 1:0.387321 2:7.7069868e-05 
10 1:0.38747568 2:7.7100646e-05 
10 1:0.38763036 2:7.7131425e-05 
10 1:0.38778505 2:7.7162204e-05 
10 1:0.38793973 2:7.7192982e-05 
10 1:0.38809441 2:7.7223761e-05 
10 1:0.38824909 2:7.725454e-05 
10 1:0.38840377 2:7.7285319e-05 
10 1:0.38855845 2:7.7316097e-05 
10 1:0.38871313 2:7.7346876e-05 
10 1:0.38886781 2:7.7377655e-05 
10 1:0.38902249 2:7.7408433e-05 
10 1:0.38917717 2:7.7439212e-05 
10 1:0.38933185 2:7.7469991e-05 
10 1:0.38948654 2:7.7500769e-05 
10 1:0.38964122 2:7.7531548e-05 
10 1:0.3897959 2:7.7562327e-05 
10 1:0.38995058 2:7.7593106e-05 
10 1:0.39010526 2:7.7623884e-05 
10 1:0.39025994 2:7.7654663e-05 
10 1:0.39041462 2:7.7685442e-05 
10 1:0.3905693 2:7.771622e-05 
10 1:0.39072398 2:7.7746999e-05 
10 1:0.39087866 2:7.7777778e-05 
10 1:0.39103334 2:7.7808556e-05 
10 1:0.39118803 2:7.7839335e-05 
10 1:0.39134271 2:7.7870114e-05 
10 1:0.39149739 2:7.7900893e-05 
10 1:0.39165207 2:7.7931671e-05 
10 1:0.39180675 2:7.796245e-05 
10 1:0.39196143 2:7.7993229e-05 
10 1:0.39211611 2:7.8024007e-05 
10 1:0.39227079 2:7.8054786e-05 
10 1:0.39242547 2:7.8085565e-05 
10 1:0.39258015 2:7.8116343e-05 
10 1:0.39273483 2:7.8147122e-05 
10 1:0.39288952 2:7.8177901e-05 
10 1:0.3930442 2:7.820868e-05 
10 1:0.39319888 2:7.8239458e-05 
10 1:0.39335356 2:7.8270237e-05 
10 1:0.39350824 2:7.8301016e-05 
10 1:0.39366292 2:7.8331794e-05 
10 1:0.3938176 2:7.8362573e-05 
10 1:0.39397228 2:7.8393352e-05 
10 1:0.39412696 2:7.8424131e-05 
10 1:0.39428164 2:7.8454909e-05 
10 1:0.39443632 2:7.8485688e-05 
10 1:0.39459101 2:7.8516467e-05 
10 1:0.39474569 2:7.8547245e-05 
10 1:0.39490037 2:7.8578024e-05 
10 1:0.39505505 2:7.8608803e-05 
10 1:0.39520973 2:7.8639581e-05 
10 1:0.39536441 2:7.867036e-05 
10 1:0.39551909 2:7.8701139e-05 
10 1:0.39567377 2:7.8731918e-05 
10 1:0.39582845 2:7.8762696e-05 
10 1:0.39598313 2:7.8793475e-05 
10 1:0.39613781 2:7.8824254e-05 
10 1:0.3962925 2:7.8855032e-05 
10 1:0.39644718 2:7.8885811e-05 
10 1:0.39660186 2:7.891659e-05 
10 1:0.39675654 2:7.8947368e-05 
10 1:0.39691122 2:7.8978147e-05 
10 1:0.3970659 2:7.9008926e-05 
10 1:0.39722058 2:7.9039705e-05 
10 1:0.39737526 2:7.9070483e-05 
10 1:0.39752994 2:7.9101262e-05 
10 1:0.39768462 2:7.9132041e-05 
10 1:0.39783931 2:7.9162819e-05 
10 1:0.39799399 2:7.9193598e-05 
10 1:0.39814867 2:7.9224377e-05 
10 1:0.39830335 2:7.9255155e-05 
10 1:0.39845803 2:7.9285934e-05 
10 1:0.39861271 2:7.9316713e-05 
10 1:0.39876739 2:7.9347492e-05 
10 1:0.39892207 2:7.937827e-05 
10 1:0.39907675 2:7.9409049e-05 
10 1:0.39923143 2:7.9439828e-05 
10 1:0.39938611 2:7.9470606e-05 
10 1:0.3995408 2:7.9501385e-05 
10 1:0.39969548 2:7.9532164e-05 
10 1:0.39985016 2:7.9562942e-05 
10 1:0.40000484 2:7.9593721e-05 
10 1:0.40015952 2:7.96245e-05 
10 1:0.4003142 2:7.9655279e-05 
10 1:0.40046888 2:7.9686057e-05 
10 1:0.40062356 2:7.9716836e-05 
10 1:0.40077824 2:7.9747615e-05 
10 1:0.40093292 2:7.9778393e-05 
10 1:0.4010876 2:7.9809172e-05 
10 1:0.40124229 2:7.9839951e-05 
10 1:0.40139697 2:7.9870729e-05 
10 1:0.40155165 2:7.9901508e-05 
10 1:0.40170633 2:7.9932287e-05 
10 1:0.40186101 2:7.9963066e-05 
10 1:0.40201569 2:7.9993844e-05 
10 1:0.40217037 2:8.0024623e-05 
10 1:0.40232505 2:8.0055402e-05 
10 1:0.40247973 2:8.008618e-05 
10 1:0.40263441 2:8.0116959e-05 
10 1:0.40278909 2:8.0147738e-05 
10 1:0.40294378 2:8.0178516e-05 
10 1:0.40309846 2:8.0209295e-05 
10 1:0.40325314 2:8.0240074e-05 
10 1:0.40340782 2:8.0270853e-05 
10 1:0.4035625 2:8.0301631e-05 
10 1:0.40371718 2:8.033241e-05 
10 1:0.40387186 2:8.0363189e-05 
10 1:0.40402654 2:8.0393967e-05 
10 1:0.40418122 2:8.0424746e-05 
10 1:0.4043359 2:8.0455525e-05 
10 1:0.40449058 2:8.0486303e-05 
10 1:0.40464527 2:8.0517082e-05 
10 1:0.40479995 2:8.0547861e-05 
10 1:0.40495463 2:8.057864e-05 
10 1:0.40510931 2:8.0609418e-05 
10 1:0.40526399 2:8.0640197e-05 
10 1:0.40541867 2:8.0670976e-05 
10 1:0.40557335 2:8.0701754e-05 
10 1:0.40572803 2:8.0732533e-05 
10 1:0.40588271 2:8.0763312e-05 
10 1:0.40603739 2:8.079409e-05 
10 1:0.40619207 2:8.0824869e-05 
10 1:0.40634676 2:8.0855648e-05 
10 1:0.40650144 2:8.0886427e-05 
10 1:0.40665612 2:8.0917205e-05 
10 1:0.4068108 2:8.0947984e-05 
10 1:0.40696548 2:8.0978763e-05 
10 1:0.40712016 2:8.1009541e-05 
10 1:0.40727484 2:8.104032e-05 
10 1:0.40742952 2:8.1071099e-05 
10 1:0.4075842 2:8.1101878e-05 
10 1:0.40773888 2:8.1132656e-05 
10 1:0.40789356 2:8.1163435e-05 
10 1:0.40804825 2:8.1194214e-05 
10 1:0.40820293 2:8.1224992e-05 
10 1:0.40835761 2:8.1255771e-05 
10 1:0.40851229 2:8.128655e-05 
10 1:0.40866697 2:8.1317328e-05 
10 1:0.40882165 2:8.1348107e-05 
10 1:0.40897633 2:8.1378886e-05 
10 1:0.40913101 2:8.1409665e-05 
10 1:0.40928569 2:8.1440443e-05 
10 1:0.40944037 2:8.1471222e-05 
10 1:0.40959505 2:8.1502001e-05 
10 1:0.40974974 2:8.1532779e-05 
10 1:0.40990442 2:8.1563558e-05 
10 1:0.4100591 2:8.1594337e-05 
10 1:0.41021378 2:8.1625115e-05 
10 1:0.41036846 2:8.1655894e-05 
10 1:0.41052314 2:8.1686673e-05 
10 1:0.41067782 2:8.1717452e-05 
10 1:0.4108325 2:8.174823e-05 
1.0992953731914761 1:0.41098718 2:8.1779009e-05 
-3.9897907665438441 1:0.42738336 2:8.5041551e-05 
-10 1:0.42753804 2:8.507233e-05 
-10 1:0.42769272 2:8.5103109e-05 
-10 1:0.4278474 2:8.5133887e-05 
-10 1:0.42800208 2:8.5164666e-05 
-10 1:0.42815676 2:8.5195445e-05 
-10 1:0.42831144 2:8.5226223e-05 
-10 1:0.42846613 2:8.5257002e-05 
-10 1:0.42862081 2:8.5287781e-05 
-10 1:0.42877549 2:8.531856e-05 
-10 1:0.42893017 2:8.5349338e-05 
-10 1:0.42908485 2:8.5380117e-05 
-10 1:0.42923953 2:8.5410896e-05 
-10 1:0.42939421 2:8.5441674e-05 
-10 1:0.42954889 2:8.5472453e-05 
-10 1:0.42970357 2:8.5503232e-05 
-10 1:0.42985825 2:8.553401e-05 
-10 1:0.43001293 2:8.5564789e-05 
-10 1:0.43016762 2:8.5595568e-05 
-10 1:0.4303223 2:8.5626347e-05 
-10 1:0.43047698 2:8.5657125e-05 
-10 1:0.43063166 2:8.5687904e-05 
-10 1:0.43078634 2:8.5718683e-05 
-10 1:0.43094102 2:8.5749461e-05 
-10 1:0.4310957 2:8.578024e-05 
-10 1:0.43125038 2:8.5811019e-05 
-10 1:0.43140506 2:8.5841797e-05 
-10 1:0.43155974 2:8.5872576e-05 
-10 1:0.43171442 2:8.5903355e-05 
-10 1:0.43186911 2:8.5934134e-05 
-10 1:0.43202379 2:8.5964912e-05 
-10 1:0.43217847 2:8.5995691e-05 
-10 1:0.43233315 2:8.602647e-05 
-10 1:0.43248783 2:8.6057248e-05 
-10 1:0.43264251 2:8.6088027e-05 
-10 1:0.43279719 2:8.6118806e-05 
-10 1:0.43295187 2:8.6149584e-05 
-10 1:0.43310655 2:8.6180363e-05 
-10 1:0.43326123 2:8.6211142e-05 
-10 1:0.43341591 2:8.6241921e-05 
-10 1:0.4335706 2:8.6272699e-05 
-10 1:0.43372528 2:8.6303478e-05 
-10 1:0.43387996 2:8.6334257e-05 
-10 1:0.43403464 2:8.6365035e-05 
-10 1:0.43418932 2:8.6395814e-05 
-10 1:0.434344 2:8.6426593e-05 
-10 1:0.43449868 2:8.6457371e-05 
-10 1:0.43465336 2:8.648815e-05 
-10 1:0.43480804 2:8.6518929e-05 
-10 1:0.43496272 2:8.6549708e-05 
-10 1:0.4351174 2:8.6580486e-05 
-10 1:0.43527209 2:8.6611265e-05 
-10 1:0.43542677 2:8.6642044e-05 
-10 1:0.43558145 2:8.6672822e-05 
-10 1:0.43573613 2:8.6703601e-05 
-10 1:0.43589081 2:8.673438e-05 
-10 1:0.43604549 2:8.6765159e-05 
-10 1:0.43620017 2:8.6795937e-05 
-10 1:0.43635485 2:8.6826716e-05 
-10 1:0.43650953 2:8.6857495e-05 
-10 1:0.43666421 2:8.6888273e-05 
-10 1:0.43681889 2:8.6919052e-05 
-10 1:0.43697358 2:8.6949831e-05 
-10 1:0.43712826 2:8.6980609e-05 
-10 1:0.43728294 2:8.7011388e-05 
-10 1:0.43743762 2:8.7042167e-05 
-10 1:0.4375923 2:8.7072946e-05 
-10 1:0.43774698 2:8.7103724e-05 
-10 1:0.43790166 2:8.7134503e-05 
-10 1:0.43805634 2:8.7165282e-05 
-10 1:0.43821102 2:8.719606e-05 
-10 1:0.4383657 2:8.7226839e-05 
-10 1:0.43852038 2:8.7257618e-05 
-10 1:0.43867507 2:8.7288396e-05 
-10 1:0.43882975 2:8.7319175e-05 
-10 1:0.43898443 2:8.7349954e-05 
-10 1:0.43913911 2:8.7380733e-05 
-10 1:0.43929379 2:8.7411511e-05 
-10 1:0.43944847 2:8.744229e-05 
-10 1:0.43960315 2:8.7473069e-05 
-10 1:0.43975783 2:8.7503847e-05 
-10 1:0.43991251 2:8.7534626e-05 
-10 1:0.44006719 2:8.7565405e-05 
-10 1:0.44022187 2:8.7596183e-05 
-10 1:0.44037656 2:8.7626962e-05 
-10 1:0.44053124 2:8.7657741e-05 
-10 1:0.44068592 2:8.768852e-05 
-10 1:0.4408406 2:8.7719298e-05 
-10 1:0.44099528 2:8.7750077e-05 
-10 1:0.44114996 2:8.7780856e-05 
-10 1:0.44130464 2:8.7811634e-05 
-10 1:0.44145932 2:8.7842413e-05 
-10 1:0.441614 2:8.7873192e-05 
-10 1:0.44176868 2:8.790397e-05 
-10 1:0.44192336 2:8.7934749e-05 
-10 1:0.44207805 2:8.7965528e-05 
-10 1:0.44223273 2:8.7996307e-05 
-10 1:0.44238741 2:8.8027085e-05 
-10 1:0.44254209 2:8.8057864e-05 
-10 1:0.44269677 2:8.8088643e-05 
-10 1:0.44285145 2:8.8119421e-05 
-10 1:0.44300613 2:8.81502e-05 
-10 1:0.44316081 2:8.8180979e-05 
-10 1:0.44331549 2:8.8211757e-05 
-10 1:0.44347017 2:8.8242536e-05 
-10 1:0.44362485 2:8.8273315e-05 
-10 1:0.44377954 2:8.8304094e-05 
-5.5587088604033292 1:0.44393422 2:8.8334872e-05 
-1.0674180374931828 1:0.45275103 2:9.0089258e-05 
-10 1:0.45290571 2:9.0120037e-05 
-10 1:0.45306039 2:9.0150816e-05 
-10 1:0.45321507 2:9.0181594e-05 
-10 1:0.45336975 2:9.0212373e-05 
-10 1:0.45352443 2:9.0243152e-05 
-10 1:0.45367911 2:9.027393e-05 
-10 1:0.4538338 2:9.0304709e-05 
-10 1:0.45398848 2:9.0335488e-05 
-10 1:0.45414316 2:9.0366267e-05 
-10 1:0.45429784 2:9.0397045e-05 
-10 1:0.45445252 2:9.0427824e-05 
-10 1:0.4546072 2:9.0458603e-05 
-10 1:0.45476188 2:9.0489381e-05 
-10 1:0.45491656 2:9.052016e-05 
-10 1:0.45507124 2:9.0550939e-05 
-10 1:0.45522592 2:9.0581717e-05 
-10 1:0.4553806 2:9.0612496e-05 
-10 1:0.45553529 2:9.0643275e-05 
-10 1:0.45568997 2:9.0674054e-05 
-10 1:0.45584465 2:9.0704832e-05 
-10 1:0.45599933 2:9.0735611e-05 
-10 1:0.45615401 2:9.076639e-05 
-10 1:0.45630869 2:9.0797168e-05 
-10 1:0.45646337 2:9.0827947e-05 
-10 1:0.45661805 2:9.0858726e-05 
-10 1:0.45677273 2:9.0889504e-05 
-10 1:0.45692741 2:9.0920283e-05 
-10 1:0.45708209 2:9.0951062e-05 
-10 1:0.45723678 2:9.0981841e-05 
-10 1:0.45739146 2:9.1012619e-05 
-10 1:0.45754614 2:9.1043398e-05 
-10 1:0.45770082 2:9.1074177e-05 
-10 1:0.4578555 2:9.1104955e-05 
-10 1:0.45801018 2:9.1135734e-05 
-10 1:0.45816486 2:9.1166513e-05 
-10 1:0.45831954 2:9.1197291e-05 
-10 1:0.45847422 2:9.122807e-05 
-10 1:0.4586289 2:9.1258849e-05 
-10 1:0.45878358 2:9.1289628e-05 
-10 1:0.45893827 2:9.1320406e-05 
-10 1:0.45909295 2:9.1351185e-05 
-10 1:0.45924763 2:9.1381964e-05 
-10 1:0.45940231 2:9.1412742e-05 
-10 1:0.45955699 2:9.1443521e-05 
-10 1:0.45971167 2:9.14743e-05 
-10 1:0.45986635 2:9.1505078e-05 
-10 1:0.46002103 2:9.1535857e-05 
-10 1:0.46017571 2:9.1566636e-05 
-10 1:0.46033039 2:9.1597415e-05 
-10 1:0.46048507 2:9.1628193e-05 
-10 1:0.46063976 2:9.1658972e-05 
-10 1:0.46079444 2:9.1689751e-05 
-10 1:0.46094912 2:9.1720529e-05 
-10 1:0.4611038 2:9.1751308e-05 
-10 1:0.46125848 2:9.1782087e-05 
-10 1:0.46141316 2:9.1812865e-05 
-10 1:0.46156784 2:9.1843644e-05 
-10 1:0.46172252 2:9.1874423e-05 
-10 1:0.4618772 2:9.1905202e-05 
-10 1:0.46203188 2:9.193598e-05 
-10 1:0.46218656 2:9.1966759e-05 
-10 1:0.46234125 2:9.1997538e-05 
-10 1:0.46249593 2:9.2028316e-05 
-10 1:0.46265061 2:9.2059095e-05 
-10 1:0.46280529 2:9.2089874e-05 
-10 1:0.46295997 2:9.2120653e-05 
-10 1:0.46311465 2:9.2151431e-05 
-10 1:0.46326933 2:9.218221e-05 
-10 1:0.46342401 2:9.2212989e-05 
-10 1:0.46357869 2:9.2243767e-05 
-3.5029668371172664 1:0.46373337 2:9.2274546e-05 
2.3805406703327616 1:0.48523402 2:9.6552785e-05 
10 1:0.4853887 2:9.6583564e-05 
10 1:0.48554338 2:9.6614343e-05 
10 1:0.48569806 2:9.6645122e-05 
10 1:0.48585274 2:9.66759e-05 
10 1:0.48600742 2:9.6706679e-05 
10 1:0.48616211 2:9.6737458e-05 
10 1:0.48631679 2:9.6768236e-05 
10 1:0.48647147 2:9.6799015e-05 
10 1:0.48662615 2:9.6829794e-05 
10 1:0.48678083 2:9.6860572e-05 
10 1:0.48693551 2:9.6891351e-05 
10 1:0.48709019 2:9.692213e-05 
10 1:0.48724487 2:9.6952909e-05 
10 1:0.48739955 2:9.6983687e-05 
10 1:0.48755423 2:9.7014466e-05 
10 1:0.48770891 2:9.7045245e-05 
10 1:0.4878636 2:9.7076023e-05 
10 1:0.48801828 2:9.7106802e-05 
10 1:0.48817296 2:9.7137581e-05 
10 1:0.48832764 2:9.7168359e-05 
10 1:0.48848232 2:9.7199138e-05 
10 1:0.488637 2:9.7229917e-05 
10 1:0.48879168 2:9.7260696e-05 
10 1:0.48894636 2:9.7291474e-05 
10 1:0.48910104 2:9.7322253e-05 
10 1:0.48925572 2:9.7353032e-05 
10 1:0.4894104 2:9.738381e-05 
10 1:0.48956509 2:9.7414589e-05 
10 1:0.48971977 2:9.7445368e-05 
10 1:0.48987445 2:9.7476147e-05 
10 1:0.49002913 2:9.7506925e-05 
10 1:0.49018381 2:9.7537704e-05 
10 1:0.49033849 2:9.7568483e-05 
10 1:0.49049317 2:9.7599261e-05 
10 1:0.49064785 2:9.763004e-05 
10 1:0.49080253 2:9.7660819e-05 
10 1:0.49095721 2:9.7691597e-05 
10 1:0.49111189 2:9.7722376e-05 
10 1:0.49126658 2:9.7753155e-05 
10 1:0.49142126 2:9.7783934e-05 
7.6515817785678362 1:0.49157594 2:9.7814712e-05 
0.75199455707354224 1:0.50116615 2:9.9722992e-05 
10 1:0.50132083 2:9.975377e-05 
10 1:0.50147552 2:9.9784549e-05 
10 1:0.5016302 2:9.9815328e-05 
10 1:0.50178488 2:9.9846106e-05 
10 1:0.50193956 2:9.9876885e-05 
10 1:0.50209424 2:9.9907664e-05 
10 1:0.50224892 2:9.9938443e-05 
10 1:0.5024036 2:9.9969221e-05 
10 1:0.50255828 2:0.0001 
